digraph Tree {
node [shape=box, style="filled, rounded", color="black", fontname=helvetica] ;
edge [fontname=helvetica] ;
0 [label="NumberOfWindows <= 4.5\ngini = 0.36\nsamples = 902\nvalue = [1093, 339]\nclass = 0", fillcolor="#eda876"] ;
1 [label="Building_Type <= 3.5\ngini = 0.33\nsamples = 717\nvalue = [907, 239]\nclass = 0", fillcolor="#eca26d"] ;
0 -> 1 [labeldistance=2.5, labelangle=45, headlabel="True"] ;
2 [label="Building_Fenced <= 0.5\ngini = 0.31\nsamples = 646\nvalue = [834, 201]\nclass = 0", fillcolor="#eb9f69"] ;
1 -> 2 ;
3 [label="Building Dimension <= 2333.5\ngini = 0.34\nsamples = 406\nvalue = [505, 143]\nclass = 0", fillcolor="#eca571"] ;
2 -> 3 ;
4 [label="Building_Type <= 1.5\ngini = 0.25\nsamples = 333\nvalue = [455, 76]\nclass = 0", fillcolor="#e9965a"] ;
3 -> 4 ;
5 [label="Building Dimension <= 1902.0\ngini = 0.1\nsamples = 85\nvalue = [136, 8]\nclass = 0", fillcolor="#e78845"] ;
4 -> 5 ;
6 [label="YearOfObservation <= 2014.5\ngini = 0.07\nsamples = 72\nvalue = [124, 5]\nclass = 0", fillcolor="#e68641"] ;
5 -> 6 ;
7 [label="Date_of_Occupancy <= 58.0\ngini = 0.1\nsamples = 54\nvalue = [88, 5]\nclass = 0", fillcolor="#e68844"] ;
6 -> 7 ;
8 [label="YearOfObservation <= 2013.5\ngini = 0.07\nsamples = 32\nvalue = [54, 2]\nclass = 0", fillcolor="#e68640"] ;
7 -> 8 ;
9 [label="Date_of_Occupancy <= 48.0\ngini = 0.09\nsamples = 25\nvalue = [39, 2]\nclass = 0", fillcolor="#e68743"] ;
8 -> 9 ;
10 [label="Building Dimension <= 379.5\ngini = 0.13\nsamples = 16\nvalue = [26, 2]\nclass = 0", fillcolor="#e78b48"] ;
9 -> 10 ;
11 [label="gini = 0.0\nsamples = 5\nvalue = [9, 0]\nclass = 0", fillcolor="#e58139"] ;
10 -> 11 ;
12 [label="Insured_Period <= 290410944.5\ngini = 0.19\nsamples = 11\nvalue = [17, 2]\nclass = 0", fillcolor="#e89050"] ;
10 -> 12 ;
13 [label="YearOfObservation <= 2012.5\ngini = 0.21\nsamples = 10\nvalue = [15, 2]\nclass = 0", fillcolor="#e89253"] ;
12 -> 13 ;
14 [label="Date_of_Occupancy <= 36.0\ngini = 0.2\nsamples = 6\nvalue = [8, 1]\nclass = 0", fillcolor="#e89152"] ;
13 -> 14 ;
15 [label="gini = 0.0\nsamples = 4\nvalue = [7, 0]\nclass = 0", fillcolor="#e58139"] ;
14 -> 15 ;
16 [label="Building Dimension <= 540.0\ngini = 0.5\nsamples = 2\nvalue = [1, 1]\nclass = 0", fillcolor="#ffffff"] ;
14 -> 16 ;
17 [label="gini = 0.0\nsamples = 1\nvalue = [0, 1]\nclass =  1", fillcolor="#399de5"] ;
16 -> 17 ;
18 [label="gini = 0.0\nsamples = 1\nvalue = [1, 0]\nclass = 0", fillcolor="#e58139"] ;
16 -> 18 ;
19 [label="Building Dimension <= 990.0\ngini = 0.22\nsamples = 4\nvalue = [7, 1]\nclass = 0", fillcolor="#e99355"] ;
13 -> 19 ;
20 [label="gini = 0.0\nsamples = 2\nvalue = [4, 0]\nclass = 0", fillcolor="#e58139"] ;
19 -> 20 ;
21 [label="Building Dimension <= 1150.0\ngini = 0.38\nsamples = 2\nvalue = [3, 1]\nclass = 0", fillcolor="#eeab7b"] ;
19 -> 21 ;
22 [label="gini = 0.0\nsamples = 1\nvalue = [0, 1]\nclass =  1", fillcolor="#399de5"] ;
21 -> 22 ;
23 [label="gini = 0.0\nsamples = 1\nvalue = [3, 0]\nclass = 0", fillcolor="#e58139"] ;
21 -> 23 ;
24 [label="gini = 0.0\nsamples = 1\nvalue = [2, 0]\nclass = 0", fillcolor="#e58139"] ;
12 -> 24 ;
25 [label="gini = 0.0\nsamples = 9\nvalue = [13, 0]\nclass = 0", fillcolor="#e58139"] ;
9 -> 25 ;
26 [label="gini = 0.0\nsamples = 7\nvalue = [15, 0]\nclass = 0", fillcolor="#e58139"] ;
8 -> 26 ;
27 [label="Building Dimension <= 435.0\ngini = 0.15\nsamples = 22\nvalue = [34, 3]\nclass = 0", fillcolor="#e78c4a"] ;
7 -> 27 ;
28 [label="gini = 0.0\nsamples = 8\nvalue = [15, 0]\nclass = 0", fillcolor="#e58139"] ;
27 -> 28 ;
29 [label="Date_of_Occupancy <= 90.0\ngini = 0.24\nsamples = 14\nvalue = [19, 3]\nclass = 0", fillcolor="#e99558"] ;
27 -> 29 ;
30 [label="Insured_Period <= 207650272.5\ngini = 0.24\nsamples = 13\nvalue = [18, 3]\nclass = 0", fillcolor="#e9965a"] ;
29 -> 30 ;
31 [label="YearOfObservation <= 2013.5\ngini = 0.28\nsamples = 12\nvalue = [15, 3]\nclass = 0", fillcolor="#ea9a61"] ;
30 -> 31 ;
32 [label="Building Dimension <= 571.5\ngini = 0.15\nsamples = 7\nvalue = [11, 1]\nclass = 0", fillcolor="#e78c4b"] ;
31 -> 32 ;
33 [label="gini = 0.0\nsamples = 1\nvalue = [0, 1]\nclass =  1", fillcolor="#399de5"] ;
32 -> 33 ;
34 [label="gini = 0.0\nsamples = 6\nvalue = [11, 0]\nclass = 0", fillcolor="#e58139"] ;
32 -> 34 ;
35 [label="Building_Painted <= 0.5\ngini = 0.44\nsamples = 5\nvalue = [4, 2]\nclass = 0", fillcolor="#f2c09c"] ;
31 -> 35 ;
36 [label="Building Dimension <= 935.0\ngini = 0.5\nsamples = 3\nvalue = [2, 2]\nclass = 0", fillcolor="#ffffff"] ;
35 -> 36 ;
37 [label="gini = 0.0\nsamples = 1\nvalue = [0, 2]\nclass =  1", fillcolor="#399de5"] ;
36 -> 37 ;
38 [label="gini = 0.0\nsamples = 2\nvalue = [2, 0]\nclass = 0", fillcolor="#e58139"] ;
36 -> 38 ;
39 [label="gini = 0.0\nsamples = 2\nvalue = [2, 0]\nclass = 0", fillcolor="#e58139"] ;
35 -> 39 ;
40 [label="gini = 0.0\nsamples = 1\nvalue = [3, 0]\nclass = 0", fillcolor="#e58139"] ;
30 -> 40 ;
41 [label="gini = 0.0\nsamples = 1\nvalue = [1, 0]\nclass = 0", fillcolor="#e58139"] ;
29 -> 41 ;
42 [label="gini = 0.0\nsamples = 18\nvalue = [36, 0]\nclass = 0", fillcolor="#e58139"] ;
6 -> 42 ;
43 [label="Building Dimension <= 1953.0\ngini = 0.32\nsamples = 13\nvalue = [12, 3]\nclass = 0", fillcolor="#eca06a"] ;
5 -> 43 ;
44 [label="gini = 0.0\nsamples = 1\nvalue = [0, 1]\nclass =  1", fillcolor="#399de5"] ;
43 -> 44 ;
45 [label="Building_Painted <= 0.5\ngini = 0.24\nsamples = 12\nvalue = [12, 2]\nclass = 0", fillcolor="#e9965a"] ;
43 -> 45 ;
46 [label="gini = 0.0\nsamples = 4\nvalue = [4, 0]\nclass = 0", fillcolor="#e58139"] ;
45 -> 46 ;
47 [label="YearOfObservation <= 2013.5\ngini = 0.32\nsamples = 8\nvalue = [8, 2]\nclass = 0", fillcolor="#eca06a"] ;
45 -> 47 ;
48 [label="Date_of_Occupancy <= 50.0\ngini = 0.48\nsamples = 5\nvalue = [3, 2]\nclass = 0", fillcolor="#f6d5bd"] ;
47 -> 48 ;
49 [label="Residential <= 0.5\ngini = 0.5\nsamples = 4\nvalue = [2, 2]\nclass = 0", fillcolor="#ffffff"] ;
48 -> 49 ;
50 [label="YearOfObservation <= 2012.5\ngini = 0.5\nsamples = 2\nvalue = [1, 1]\nclass = 0", fillcolor="#ffffff"] ;
49 -> 50 ;
51 [label="gini = 0.0\nsamples = 1\nvalue = [0, 1]\nclass =  1", fillcolor="#399de5"] ;
50 -> 51 ;
52 [label="gini = 0.0\nsamples = 1\nvalue = [1, 0]\nclass = 0", fillcolor="#e58139"] ;
50 -> 52 ;
53 [label="YearOfObservation <= 2012.5\ngini = 0.5\nsamples = 2\nvalue = [1, 1]\nclass = 0", fillcolor="#ffffff"] ;
49 -> 53 ;
54 [label="gini = 0.0\nsamples = 1\nvalue = [1, 0]\nclass = 0", fillcolor="#e58139"] ;
53 -> 54 ;
55 [label="gini = 0.0\nsamples = 1\nvalue = [0, 1]\nclass =  1", fillcolor="#399de5"] ;
53 -> 55 ;
56 [label="gini = 0.0\nsamples = 1\nvalue = [1, 0]\nclass = 0", fillcolor="#e58139"] ;
48 -> 56 ;
57 [label="gini = 0.0\nsamples = 3\nvalue = [5, 0]\nclass = 0", fillcolor="#e58139"] ;
47 -> 57 ;
58 [label="Building_Painted <= 0.5\ngini = 0.29\nsamples = 248\nvalue = [319, 68]\nclass = 0", fillcolor="#eb9c63"] ;
4 -> 58 ;
59 [label="Building Dimension <= 585.0\ngini = 0.37\nsamples = 121\nvalue = [144, 46]\nclass = 0", fillcolor="#eda978"] ;
58 -> 59 ;
60 [label="Residential <= 0.5\ngini = 0.13\nsamples = 39\nvalue = [53, 4]\nclass = 0", fillcolor="#e78b48"] ;
59 -> 60 ;
61 [label="Insured_Period <= 49863388.5\ngini = 0.08\nsamples = 33\nvalue = [46, 2]\nclass = 0", fillcolor="#e68642"] ;
60 -> 61 ;
62 [label="Building_Type <= 2.5\ngini = 0.1\nsamples = 28\nvalue = [37, 2]\nclass = 0", fillcolor="#e68844"] ;
61 -> 62 ;
63 [label="Building Dimension <= 292.0\ngini = 0.15\nsamples = 20\nvalue = [23, 2]\nclass = 0", fillcolor="#e78c4a"] ;
62 -> 63 ;
64 [label="Building Dimension <= 282.0\ngini = 0.41\nsamples = 6\nvalue = [5, 2]\nclass = 0", fillcolor="#efb388"] ;
63 -> 64 ;
65 [label="gini = 0.0\nsamples = 5\nvalue = [5, 0]\nclass = 0", fillcolor="#e58139"] ;
64 -> 65 ;
66 [label="gini = 0.0\nsamples = 1\nvalue = [0, 2]\nclass =  1", fillcolor="#399de5"] ;
64 -> 66 ;
67 [label="gini = 0.0\nsamples = 14\nvalue = [18, 0]\nclass = 0", fillcolor="#e58139"] ;
63 -> 67 ;
68 [label="gini = 0.0\nsamples = 8\nvalue = [14, 0]\nclass = 0", fillcolor="#e58139"] ;
62 -> 68 ;
69 [label="gini = 0.0\nsamples = 5\nvalue = [9, 0]\nclass = 0", fillcolor="#e58139"] ;
61 -> 69 ;
70 [label="YearOfObservation <= 2012.5\ngini = 0.35\nsamples = 6\nvalue = [7, 2]\nclass = 0", fillcolor="#eca572"] ;
60 -> 70 ;
71 [label="Building_Type <= 2.5\ngini = 0.5\nsamples = 2\nvalue = [2, 2]\nclass = 0", fillcolor="#ffffff"] ;
70 -> 71 ;
72 [label="gini = 0.0\nsamples = 1\nvalue = [0, 2]\nclass =  1", fillcolor="#399de5"] ;
71 -> 72 ;
73 [label="gini = 0.0\nsamples = 1\nvalue = [2, 0]\nclass = 0", fillcolor="#e58139"] ;
71 -> 73 ;
74 [label="gini = 0.0\nsamples = 4\nvalue = [5, 0]\nclass = 0", fillcolor="#e58139"] ;
70 -> 74 ;
75 [label="YearOfObservation <= 2013.5\ngini = 0.43\nsamples = 82\nvalue = [91, 42]\nclass = 0", fillcolor="#f1bb94"] ;
59 -> 75 ;
76 [label="Residential <= 0.5\ngini = 0.33\nsamples = 47\nvalue = [63, 17]\nclass = 0", fillcolor="#eca36e"] ;
75 -> 76 ;
77 [label="Building_Type <= 2.5\ngini = 0.42\nsamples = 36\nvalue = [40, 17]\nclass = 0", fillcolor="#f0b78d"] ;
76 -> 77 ;
78 [label="Date_of_Occupancy <= 33.5\ngini = 0.45\nsamples = 31\nvalue = [30, 16]\nclass = 0", fillcolor="#f3c4a3"] ;
77 -> 78 ;
79 [label="YearOfObservation <= 2012.5\ngini = 0.44\nsamples = 5\nvalue = [2, 4]\nclass =  1", fillcolor="#9ccef2"] ;
78 -> 79 ;
80 [label="Building Dimension <= 1400.0\ngini = 0.44\nsamples = 2\nvalue = [2, 1]\nclass = 0", fillcolor="#f2c09c"] ;
79 -> 80 ;
81 [label="gini = 0.0\nsamples = 1\nvalue = [2, 0]\nclass = 0", fillcolor="#e58139"] ;
80 -> 81 ;
82 [label="gini = 0.0\nsamples = 1\nvalue = [0, 1]\nclass =  1", fillcolor="#399de5"] ;
80 -> 82 ;
83 [label="gini = 0.0\nsamples = 3\nvalue = [0, 3]\nclass =  1", fillcolor="#399de5"] ;
79 -> 83 ;
84 [label="Date_of_Occupancy <= 48.0\ngini = 0.42\nsamples = 26\nvalue = [28, 12]\nclass = 0", fillcolor="#f0b78e"] ;
78 -> 84 ;
85 [label="Date_of_Occupancy <= 37.5\ngini = 0.2\nsamples = 7\nvalue = [8, 1]\nclass = 0", fillcolor="#e89152"] ;
84 -> 85 ;
86 [label="gini = 0.0\nsamples = 1\nvalue = [2, 0]\nclass = 0", fillcolor="#e58139"] ;
85 -> 86 ;
87 [label="Building Dimension <= 1600.0\ngini = 0.24\nsamples = 6\nvalue = [6, 1]\nclass = 0", fillcolor="#e9965a"] ;
85 -> 87 ;
88 [label="gini = 0.0\nsamples = 3\nvalue = [4, 0]\nclass = 0", fillcolor="#e58139"] ;
87 -> 88 ;
89 [label="YearOfObservation <= 2012.5\ngini = 0.44\nsamples = 3\nvalue = [2, 1]\nclass = 0", fillcolor="#f2c09c"] ;
87 -> 89 ;
90 [label="gini = 0.0\nsamples = 1\nvalue = [1, 0]\nclass = 0", fillcolor="#e58139"] ;
89 -> 90 ;
91 [label="Building Dimension <= 1850.0\ngini = 0.5\nsamples = 2\nvalue = [1, 1]\nclass = 0", fillcolor="#ffffff"] ;
89 -> 91 ;
92 [label="gini = 0.0\nsamples = 1\nvalue = [0, 1]\nclass =  1", fillcolor="#399de5"] ;
91 -> 92 ;
93 [label="gini = 0.0\nsamples = 1\nvalue = [1, 0]\nclass = 0", fillcolor="#e58139"] ;
91 -> 93 ;
94 [label="Date_of_Occupancy <= 77.5\ngini = 0.46\nsamples = 19\nvalue = [20, 11]\nclass = 0", fillcolor="#f3c6a6"] ;
84 -> 94 ;
95 [label="YearOfObservation <= 2012.5\ngini = 0.47\nsamples = 18\nvalue = [18, 11]\nclass = 0", fillcolor="#f5ceb2"] ;
94 -> 95 ;
96 [label="Date_of_Occupancy <= 58.0\ngini = 0.44\nsamples = 11\nvalue = [12, 6]\nclass = 0", fillcolor="#f2c09c"] ;
95 -> 96 ;
97 [label="gini = 0.0\nsamples = 2\nvalue = [3, 0]\nclass = 0", fillcolor="#e58139"] ;
96 -> 97 ;
98 [label="Building Dimension <= 1033.0\ngini = 0.48\nsamples = 9\nvalue = [9, 6]\nclass = 0", fillcolor="#f6d5bd"] ;
96 -> 98 ;
99 [label="Insured_Period <= 19125684.5\ngini = 0.2\nsamples = 6\nvalue = [8, 1]\nclass = 0", fillcolor="#e89152"] ;
98 -> 99 ;
100 [label="Building Dimension <= 790.0\ngini = 0.44\nsamples = 3\nvalue = [2, 1]\nclass = 0", fillcolor="#f2c09c"] ;
99 -> 100 ;
101 [label="gini = 0.0\nsamples = 2\nvalue = [2, 0]\nclass = 0", fillcolor="#e58139"] ;
100 -> 101 ;
102 [label="gini = 0.0\nsamples = 1\nvalue = [0, 1]\nclass =  1", fillcolor="#399de5"] ;
100 -> 102 ;
103 [label="gini = 0.0\nsamples = 3\nvalue = [6, 0]\nclass = 0", fillcolor="#e58139"] ;
99 -> 103 ;
104 [label="Building Dimension <= 1117.0\ngini = 0.28\nsamples = 3\nvalue = [1, 5]\nclass =  1", fillcolor="#61b1ea"] ;
98 -> 104 ;
105 [label="gini = 0.0\nsamples = 1\nvalue = [0, 3]\nclass =  1", fillcolor="#399de5"] ;
104 -> 105 ;
106 [label="gini = 0.44\nsamples = 2\nvalue = [1, 2]\nclass =  1", fillcolor="#9ccef2"] ;
104 -> 106 ;
107 [label="Insured_Period <= 247945200.5\ngini = 0.5\nsamples = 7\nvalue = [6, 5]\nclass = 0", fillcolor="#fbeade"] ;
95 -> 107 ;
108 [label="Building Dimension <= 1036.5\ngini = 0.38\nsamples = 6\nvalue = [6, 2]\nclass = 0", fillcolor="#eeab7b"] ;
107 -> 108 ;
109 [label="Date_of_Occupancy <= 58.0\ngini = 0.5\nsamples = 3\nvalue = [2, 2]\nclass = 0", fillcolor="#ffffff"] ;
108 -> 109 ;
110 [label="Building Dimension <= 885.0\ngini = 0.44\nsamples = 2\nvalue = [2, 1]\nclass = 0", fillcolor="#f2c09c"] ;
109 -> 110 ;
111 [label="gini = 0.0\nsamples = 1\nvalue = [2, 0]\nclass = 0", fillcolor="#e58139"] ;
110 -> 111 ;
112 [label="gini = 0.0\nsamples = 1\nvalue = [0, 1]\nclass =  1", fillcolor="#399de5"] ;
110 -> 112 ;
113 [label="gini = 0.0\nsamples = 1\nvalue = [0, 1]\nclass =  1", fillcolor="#399de5"] ;
109 -> 113 ;
114 [label="gini = 0.0\nsamples = 3\nvalue = [4, 0]\nclass = 0", fillcolor="#e58139"] ;
108 -> 114 ;
115 [label="gini = 0.0\nsamples = 1\nvalue = [0, 3]\nclass =  1", fillcolor="#399de5"] ;
107 -> 115 ;
116 [label="gini = 0.0\nsamples = 1\nvalue = [2, 0]\nclass = 0", fillcolor="#e58139"] ;
94 -> 116 ;
117 [label="Date_of_Occupancy <= 48.0\ngini = 0.17\nsamples = 5\nvalue = [10, 1]\nclass = 0", fillcolor="#e88e4d"] ;
77 -> 117 ;
118 [label="gini = 0.0\nsamples = 1\nvalue = [0, 1]\nclass =  1", fillcolor="#399de5"] ;
117 -> 118 ;
119 [label="gini = 0.0\nsamples = 4\nvalue = [10, 0]\nclass = 0", fillcolor="#e58139"] ;
117 -> 119 ;
120 [label="gini = 0.0\nsamples = 11\nvalue = [23, 0]\nclass = 0", fillcolor="#e58139"] ;
76 -> 120 ;
121 [label="YearOfObservation <= 2015.5\ngini = 0.5\nsamples = 35\nvalue = [28, 25]\nclass = 0", fillcolor="#fcf2ea"] ;
75 -> 121 ;
122 [label="Building Dimension <= 750.0\ngini = 0.49\nsamples = 26\nvalue = [21, 15]\nclass = 0", fillcolor="#f8dbc6"] ;
121 -> 122 ;
123 [label="Building_Type <= 2.5\ngini = 0.28\nsamples = 4\nvalue = [1, 5]\nclass =  1", fillcolor="#61b1ea"] ;
122 -> 123 ;
124 [label="gini = 0.0\nsamples = 3\nvalue = [0, 5]\nclass =  1", fillcolor="#399de5"] ;
123 -> 124 ;
125 [label="gini = 0.0\nsamples = 1\nvalue = [1, 0]\nclass = 0", fillcolor="#e58139"] ;
123 -> 125 ;
126 [label="Residential <= 0.5\ngini = 0.44\nsamples = 22\nvalue = [20, 10]\nclass = 0", fillcolor="#f2c09c"] ;
122 -> 126 ;
127 [label="Building Dimension <= 1818.0\ngini = 0.47\nsamples = 19\nvalue = [16, 10]\nclass = 0", fillcolor="#f5d0b5"] ;
126 -> 127 ;
128 [label="Building Dimension <= 975.0\ngini = 0.5\nsamples = 14\nvalue = [10, 10]\nclass = 0", fillcolor="#ffffff"] ;
127 -> 128 ;
129 [label="gini = 0.0\nsamples = 3\nvalue = [4, 0]\nclass = 0", fillcolor="#e58139"] ;
128 -> 129 ;
130 [label="Building Dimension <= 1177.5\ngini = 0.47\nsamples = 11\nvalue = [6, 10]\nclass =  1", fillcolor="#b0d8f5"] ;
128 -> 130 ;
131 [label="gini = 0.0\nsamples = 3\nvalue = [0, 4]\nclass =  1", fillcolor="#399de5"] ;
130 -> 131 ;
132 [label="YearOfObservation <= 2014.5\ngini = 0.5\nsamples = 8\nvalue = [6, 6]\nclass = 0", fillcolor="#ffffff"] ;
130 -> 132 ;
133 [label="Date_of_Occupancy <= 50.0\ngini = 0.32\nsamples = 3\nvalue = [1, 4]\nclass =  1", fillcolor="#6ab6ec"] ;
132 -> 133 ;
134 [label="gini = 0.0\nsamples = 1\nvalue = [1, 0]\nclass = 0", fillcolor="#e58139"] ;
133 -> 134 ;
135 [label="gini = 0.0\nsamples = 2\nvalue = [0, 4]\nclass =  1", fillcolor="#399de5"] ;
133 -> 135 ;
136 [label="Building Dimension <= 1525.0\ngini = 0.41\nsamples = 5\nvalue = [5, 2]\nclass = 0", fillcolor="#efb388"] ;
132 -> 136 ;
137 [label="Building Dimension <= 1430.5\ngini = 0.28\nsamples = 4\nvalue = [5, 1]\nclass = 0", fillcolor="#ea9a61"] ;
136 -> 137 ;
138 [label="Building Dimension <= 1355.5\ngini = 0.44\nsamples = 2\nvalue = [2, 1]\nclass = 0", fillcolor="#f2c09c"] ;
137 -> 138 ;
139 [label="gini = 0.0\nsamples = 1\nvalue = [2, 0]\nclass = 0", fillcolor="#e58139"] ;
138 -> 139 ;
140 [label="gini = 0.0\nsamples = 1\nvalue = [0, 1]\nclass =  1", fillcolor="#399de5"] ;
138 -> 140 ;
141 [label="gini = 0.0\nsamples = 2\nvalue = [3, 0]\nclass = 0", fillcolor="#e58139"] ;
137 -> 141 ;
142 [label="gini = 0.0\nsamples = 1\nvalue = [0, 1]\nclass =  1", fillcolor="#399de5"] ;
136 -> 142 ;
143 [label="gini = 0.0\nsamples = 5\nvalue = [6, 0]\nclass = 0", fillcolor="#e58139"] ;
127 -> 143 ;
144 [label="gini = 0.0\nsamples = 3\nvalue = [4, 0]\nclass = 0", fillcolor="#e58139"] ;
126 -> 144 ;
145 [label="Residential <= 0.5\ngini = 0.48\nsamples = 9\nvalue = [7, 10]\nclass =  1", fillcolor="#c4e2f7"] ;
121 -> 145 ;
146 [label="Building Dimension <= 1257.5\ngini = 0.47\nsamples = 8\nvalue = [6, 10]\nclass =  1", fillcolor="#b0d8f5"] ;
145 -> 146 ;
147 [label="gini = 0.0\nsamples = 3\nvalue = [0, 7]\nclass =  1", fillcolor="#399de5"] ;
146 -> 147 ;
148 [label="Date_of_Occupancy <= 50.0\ngini = 0.44\nsamples = 5\nvalue = [6, 3]\nclass = 0", fillcolor="#f2c09c"] ;
146 -> 148 ;
149 [label="gini = 0.0\nsamples = 3\nvalue = [4, 0]\nclass = 0", fillcolor="#e58139"] ;
148 -> 149 ;
150 [label="Building Dimension <= 1482.5\ngini = 0.48\nsamples = 2\nvalue = [2, 3]\nclass =  1", fillcolor="#bddef6"] ;
148 -> 150 ;
151 [label="gini = 0.0\nsamples = 1\nvalue = [2, 0]\nclass = 0", fillcolor="#e58139"] ;
150 -> 151 ;
152 [label="gini = 0.0\nsamples = 1\nvalue = [0, 3]\nclass =  1", fillcolor="#399de5"] ;
150 -> 152 ;
153 [label="gini = 0.0\nsamples = 1\nvalue = [1, 0]\nclass = 0", fillcolor="#e58139"] ;
145 -> 153 ;
154 [label="YearOfObservation <= 2014.5\ngini = 0.2\nsamples = 127\nvalue = [175, 22]\nclass = 0", fillcolor="#e89152"] ;
58 -> 154 ;
155 [label="Building Dimension <= 164.0\ngini = 0.25\nsamples = 96\nvalue = [123, 21]\nclass = 0", fillcolor="#e9975b"] ;
154 -> 155 ;
156 [label="Insured_Period <= 0.5\ngini = 0.5\nsamples = 3\nvalue = [2, 2]\nclass = 0", fillcolor="#ffffff"] ;
155 -> 156 ;
157 [label="gini = 0.0\nsamples = 1\nvalue = [1, 0]\nclass = 0", fillcolor="#e58139"] ;
156 -> 157 ;
158 [label="Date_of_Occupancy <= 50.0\ngini = 0.44\nsamples = 2\nvalue = [1, 2]\nclass =  1", fillcolor="#9ccef2"] ;
156 -> 158 ;
159 [label="gini = 0.0\nsamples = 1\nvalue = [0, 2]\nclass =  1", fillcolor="#399de5"] ;
158 -> 159 ;
160 [label="gini = 0.0\nsamples = 1\nvalue = [1, 0]\nclass = 0", fillcolor="#e58139"] ;
158 -> 160 ;
161 [label="Building_Type <= 2.5\ngini = 0.23\nsamples = 93\nvalue = [121, 19]\nclass = 0", fillcolor="#e99558"] ;
155 -> 161 ;
162 [label="Insured_Period <= 20684932.5\ngini = 0.13\nsamples = 65\nvalue = [91, 7]\nclass = 0", fillcolor="#e78b48"] ;
161 -> 162 ;
163 [label="Date_of_Occupancy <= 58.0\ngini = 0.16\nsamples = 53\nvalue = [75, 7]\nclass = 0", fillcolor="#e78d4b"] ;
162 -> 163 ;
164 [label="Building Dimension <= 1450.0\ngini = 0.21\nsamples = 27\nvalue = [37, 5]\nclass = 0", fillcolor="#e99254"] ;
163 -> 164 ;
165 [label="Date_of_Occupancy <= 48.0\ngini = 0.11\nsamples = 22\nvalue = [32, 2]\nclass = 0", fillcolor="#e78945"] ;
164 -> 165 ;
166 [label="gini = 0.0\nsamples = 15\nvalue = [25, 0]\nclass = 0", fillcolor="#e58139"] ;
165 -> 166 ;
167 [label="Residential <= 0.5\ngini = 0.35\nsamples = 7\nvalue = [7, 2]\nclass = 0", fillcolor="#eca572"] ;
165 -> 167 ;
168 [label="Building Dimension <= 443.0\ngini = 0.22\nsamples = 6\nvalue = [7, 1]\nclass = 0", fillcolor="#e99355"] ;
167 -> 168 ;
169 [label="gini = 0.0\nsamples = 1\nvalue = [0, 1]\nclass =  1", fillcolor="#399de5"] ;
168 -> 169 ;
170 [label="gini = 0.0\nsamples = 5\nvalue = [7, 0]\nclass = 0", fillcolor="#e58139"] ;
168 -> 170 ;
171 [label="gini = 0.0\nsamples = 1\nvalue = [0, 1]\nclass =  1", fillcolor="#399de5"] ;
167 -> 171 ;
172 [label="YearOfObservation <= 2012.5\ngini = 0.47\nsamples = 5\nvalue = [5, 3]\nclass = 0", fillcolor="#f5cdb0"] ;
164 -> 172 ;
173 [label="Building Dimension <= 1940.0\ngini = 0.48\nsamples = 4\nvalue = [2, 3]\nclass =  1", fillcolor="#bddef6"] ;
172 -> 173 ;
174 [label="gini = 0.0\nsamples = 2\nvalue = [0, 2]\nclass =  1", fillcolor="#399de5"] ;
173 -> 174 ;
175 [label="Building Dimension <= 2044.5\ngini = 0.44\nsamples = 2\nvalue = [2, 1]\nclass = 0", fillcolor="#f2c09c"] ;
173 -> 175 ;
176 [label="gini = 0.0\nsamples = 1\nvalue = [2, 0]\nclass = 0", fillcolor="#e58139"] ;
175 -> 176 ;
177 [label="gini = 0.0\nsamples = 1\nvalue = [0, 1]\nclass =  1", fillcolor="#399de5"] ;
175 -> 177 ;
178 [label="gini = 0.0\nsamples = 1\nvalue = [3, 0]\nclass = 0", fillcolor="#e58139"] ;
172 -> 178 ;
179 [label="Building Dimension <= 584.0\ngini = 0.09\nsamples = 26\nvalue = [38, 2]\nclass = 0", fillcolor="#e68843"] ;
163 -> 179 ;
180 [label="Residential <= 0.5\ngini = 0.2\nsamples = 11\nvalue = [16, 2]\nclass = 0", fillcolor="#e89152"] ;
179 -> 180 ;
181 [label="Building Dimension <= 505.0\ngini = 0.2\nsamples = 6\nvalue = [8, 1]\nclass = 0", fillcolor="#e89152"] ;
180 -> 181 ;
182 [label="gini = 0.0\nsamples = 5\nvalue = [8, 0]\nclass = 0", fillcolor="#e58139"] ;
181 -> 182 ;
183 [label="gini = 0.0\nsamples = 1\nvalue = [0, 1]\nclass =  1", fillcolor="#399de5"] ;
181 -> 183 ;
184 [label="Building Dimension <= 564.0\ngini = 0.2\nsamples = 5\nvalue = [8, 1]\nclass = 0", fillcolor="#e89152"] ;
180 -> 184 ;
185 [label="gini = 0.0\nsamples = 4\nvalue = [8, 0]\nclass = 0", fillcolor="#e58139"] ;
184 -> 185 ;
186 [label="gini = 0.0\nsamples = 1\nvalue = [0, 1]\nclass =  1", fillcolor="#399de5"] ;
184 -> 186 ;
187 [label="gini = 0.0\nsamples = 15\nvalue = [22, 0]\nclass = 0", fillcolor="#e58139"] ;
179 -> 187 ;
188 [label="gini = 0.0\nsamples = 12\nvalue = [16, 0]\nclass = 0", fillcolor="#e58139"] ;
162 -> 188 ;
189 [label="Building Dimension <= 1117.5\ngini = 0.41\nsamples = 28\nvalue = [30, 12]\nclass = 0", fillcolor="#efb388"] ;
161 -> 189 ;
190 [label="Building Dimension <= 1082.5\ngini = 0.46\nsamples = 22\nvalue = [22, 12]\nclass = 0", fillcolor="#f3c6a5"] ;
189 -> 190 ;
191 [label="Building Dimension <= 408.0\ngini = 0.43\nsamples = 21\nvalue = [22, 10]\nclass = 0", fillcolor="#f1ba93"] ;
190 -> 191 ;
192 [label="Residential <= 0.5\ngini = 0.5\nsamples = 8\nvalue = [6, 6]\nclass = 0", fillcolor="#ffffff"] ;
191 -> 192 ;
193 [label="YearOfObservation <= 2012.5\ngini = 0.38\nsamples = 3\nvalue = [1, 3]\nclass =  1", fillcolor="#7bbeee"] ;
192 -> 193 ;
194 [label="gini = 0.0\nsamples = 1\nvalue = [1, 0]\nclass = 0", fillcolor="#e58139"] ;
193 -> 194 ;
195 [label="gini = 0.0\nsamples = 2\nvalue = [0, 3]\nclass =  1", fillcolor="#399de5"] ;
193 -> 195 ;
196 [label="YearOfObservation <= 2013.5\ngini = 0.47\nsamples = 5\nvalue = [5, 3]\nclass = 0", fillcolor="#f5cdb0"] ;
192 -> 196 ;
197 [label="gini = 0.0\nsamples = 3\nvalue = [3, 0]\nclass = 0", fillcolor="#e58139"] ;
196 -> 197 ;
198 [label="Building Dimension <= 390.0\ngini = 0.48\nsamples = 2\nvalue = [2, 3]\nclass =  1", fillcolor="#bddef6"] ;
196 -> 198 ;
199 [label="gini = 0.0\nsamples = 1\nvalue = [2, 0]\nclass = 0", fillcolor="#e58139"] ;
198 -> 199 ;
200 [label="gini = 0.0\nsamples = 1\nvalue = [0, 3]\nclass =  1", fillcolor="#399de5"] ;
198 -> 200 ;
201 [label="Insured_Period <= 397260280.0\ngini = 0.32\nsamples = 13\nvalue = [16, 4]\nclass = 0", fillcolor="#eca06a"] ;
191 -> 201 ;
202 [label="Building Dimension <= 547.5\ngini = 0.27\nsamples = 12\nvalue = [16, 3]\nclass = 0", fillcolor="#ea995e"] ;
201 -> 202 ;
203 [label="gini = 0.0\nsamples = 5\nvalue = [9, 0]\nclass = 0", fillcolor="#e58139"] ;
202 -> 203 ;
204 [label="Residential <= 0.5\ngini = 0.42\nsamples = 7\nvalue = [7, 3]\nclass = 0", fillcolor="#f0b78e"] ;
202 -> 204 ;
205 [label="Building Dimension <= 697.5\ngini = 0.44\nsamples = 2\nvalue = [1, 2]\nclass =  1", fillcolor="#9ccef2"] ;
204 -> 205 ;
206 [label="gini = 0.0\nsamples = 1\nvalue = [0, 2]\nclass =  1", fillcolor="#399de5"] ;
205 -> 206 ;
207 [label="gini = 0.0\nsamples = 1\nvalue = [1, 0]\nclass = 0", fillcolor="#e58139"] ;
205 -> 207 ;
208 [label="YearOfObservation <= 2013.5\ngini = 0.24\nsamples = 5\nvalue = [6, 1]\nclass = 0", fillcolor="#e9965a"] ;
204 -> 208 ;
209 [label="gini = 0.0\nsamples = 3\nvalue = [5, 0]\nclass = 0", fillcolor="#e58139"] ;
208 -> 209 ;
210 [label="Building Dimension <= 660.5\ngini = 0.5\nsamples = 2\nvalue = [1, 1]\nclass = 0", fillcolor="#ffffff"] ;
208 -> 210 ;
211 [label="gini = 0.0\nsamples = 1\nvalue = [0, 1]\nclass =  1", fillcolor="#399de5"] ;
210 -> 211 ;
212 [label="gini = 0.0\nsamples = 1\nvalue = [1, 0]\nclass = 0", fillcolor="#e58139"] ;
210 -> 212 ;
213 [label="gini = 0.0\nsamples = 1\nvalue = [0, 1]\nclass =  1", fillcolor="#399de5"] ;
201 -> 213 ;
214 [label="gini = 0.0\nsamples = 1\nvalue = [0, 2]\nclass =  1", fillcolor="#399de5"] ;
190 -> 214 ;
215 [label="gini = 0.0\nsamples = 6\nvalue = [8, 0]\nclass = 0", fillcolor="#e58139"] ;
189 -> 215 ;
216 [label="Date_of_Occupancy <= 48.0\ngini = 0.04\nsamples = 31\nvalue = [52, 1]\nclass = 0", fillcolor="#e6833d"] ;
154 -> 216 ;
217 [label="YearOfObservation <= 2015.5\ngini = 0.13\nsamples = 8\nvalue = [13, 1]\nclass = 0", fillcolor="#e78b48"] ;
216 -> 217 ;
218 [label="gini = 0.0\nsamples = 5\nvalue = [10, 0]\nclass = 0", fillcolor="#e58139"] ;
217 -> 218 ;
219 [label="Building Dimension <= 250.0\ngini = 0.38\nsamples = 3\nvalue = [3, 1]\nclass = 0", fillcolor="#eeab7b"] ;
217 -> 219 ;
220 [label="gini = 0.0\nsamples = 1\nvalue = [0, 1]\nclass =  1", fillcolor="#399de5"] ;
219 -> 220 ;
221 [label="gini = 0.0\nsamples = 2\nvalue = [3, 0]\nclass = 0", fillcolor="#e58139"] ;
219 -> 221 ;
222 [label="gini = 0.0\nsamples = 23\nvalue = [39, 0]\nclass = 0", fillcolor="#e58139"] ;
216 -> 222 ;
223 [label="YearOfObservation <= 2013.5\ngini = 0.49\nsamples = 73\nvalue = [50, 67]\nclass =  1", fillcolor="#cde6f8"] ;
3 -> 223 ;
224 [label="Building Dimension <= 9704.0\ngini = 0.5\nsamples = 44\nvalue = [35, 36]\nclass =  1", fillcolor="#fafcfe"] ;
223 -> 224 ;
225 [label="Building_Type <= 2.5\ngini = 0.5\nsamples = 41\nvalue = [35, 31]\nclass = 0", fillcolor="#fcf1e8"] ;
224 -> 225 ;
226 [label="YearOfObservation <= 2012.5\ngini = 0.49\nsamples = 35\nvalue = [34, 24]\nclass = 0", fillcolor="#f7dac5"] ;
225 -> 226 ;
227 [label="Building Dimension <= 4006.5\ngini = 0.46\nsamples = 19\nvalue = [22, 12]\nclass = 0", fillcolor="#f3c6a5"] ;
226 -> 227 ;
228 [label="Building_Type <= 1.5\ngini = 0.49\nsamples = 17\nvalue = [17, 12]\nclass = 0", fillcolor="#f7dac5"] ;
227 -> 228 ;
229 [label="Date_of_Occupancy <= 36.0\ngini = 0.46\nsamples = 8\nvalue = [11, 6]\nclass = 0", fillcolor="#f3c6a5"] ;
228 -> 229 ;
230 [label="Building Dimension <= 3575.0\ngini = 0.49\nsamples = 3\nvalue = [3, 4]\nclass =  1", fillcolor="#cee6f8"] ;
229 -> 230 ;
231 [label="gini = 0.0\nsamples = 2\nvalue = [3, 0]\nclass = 0", fillcolor="#e58139"] ;
230 -> 231 ;
232 [label="gini = 0.0\nsamples = 1\nvalue = [0, 4]\nclass =  1", fillcolor="#399de5"] ;
230 -> 232 ;
233 [label="Date_of_Occupancy <= 48.0\ngini = 0.32\nsamples = 5\nvalue = [8, 2]\nclass = 0", fillcolor="#eca06a"] ;
229 -> 233 ;
234 [label="Building_Painted <= 0.5\ngini = 0.35\nsamples = 4\nvalue = [7, 2]\nclass = 0", fillcolor="#eca572"] ;
233 -> 234 ;
235 [label="Building Dimension <= 2936.5\ngini = 0.44\nsamples = 2\nvalue = [4, 2]\nclass = 0", fillcolor="#f2c09c"] ;
234 -> 235 ;
236 [label="gini = 0.0\nsamples = 1\nvalue = [4, 0]\nclass = 0", fillcolor="#e58139"] ;
235 -> 236 ;
237 [label="gini = 0.0\nsamples = 1\nvalue = [0, 2]\nclass =  1", fillcolor="#399de5"] ;
235 -> 237 ;
238 [label="gini = 0.0\nsamples = 2\nvalue = [3, 0]\nclass = 0", fillcolor="#e58139"] ;
234 -> 238 ;
239 [label="gini = 0.0\nsamples = 1\nvalue = [1, 0]\nclass = 0", fillcolor="#e58139"] ;
233 -> 239 ;
240 [label="Date_of_Occupancy <= 48.0\ngini = 0.5\nsamples = 9\nvalue = [6, 6]\nclass = 0", fillcolor="#ffffff"] ;
228 -> 240 ;
241 [label="Date_of_Occupancy <= 36.0\ngini = 0.47\nsamples = 6\nvalue = [5, 3]\nclass = 0", fillcolor="#f5cdb0"] ;
240 -> 241 ;
242 [label="gini = 0.0\nsamples = 1\nvalue = [1, 0]\nclass = 0", fillcolor="#e58139"] ;
241 -> 242 ;
243 [label="Building Dimension <= 3495.5\ngini = 0.49\nsamples = 5\nvalue = [4, 3]\nclass = 0", fillcolor="#f8e0ce"] ;
241 -> 243 ;
244 [label="Building Dimension <= 3230.0\ngini = 0.44\nsamples = 4\nvalue = [4, 2]\nclass = 0", fillcolor="#f2c09c"] ;
243 -> 244 ;
245 [label="Building Dimension <= 2790.0\ngini = 0.48\nsamples = 3\nvalue = [3, 2]\nclass = 0", fillcolor="#f6d5bd"] ;
244 -> 245 ;
246 [label="gini = 0.38\nsamples = 2\nvalue = [3, 1]\nclass = 0", fillcolor="#eeab7b"] ;
245 -> 246 ;
247 [label="gini = 0.0\nsamples = 1\nvalue = [0, 1]\nclass =  1", fillcolor="#399de5"] ;
245 -> 247 ;
248 [label="gini = 0.0\nsamples = 1\nvalue = [1, 0]\nclass = 0", fillcolor="#e58139"] ;
244 -> 248 ;
249 [label="gini = 0.0\nsamples = 1\nvalue = [0, 1]\nclass =  1", fillcolor="#399de5"] ;
243 -> 249 ;
250 [label="Date_of_Occupancy <= 58.0\ngini = 0.38\nsamples = 3\nvalue = [1, 3]\nclass =  1", fillcolor="#7bbeee"] ;
240 -> 250 ;
251 [label="gini = 0.0\nsamples = 1\nvalue = [0, 2]\nclass =  1", fillcolor="#399de5"] ;
250 -> 251 ;
252 [label="Residential <= 0.5\ngini = 0.5\nsamples = 2\nvalue = [1, 1]\nclass = 0", fillcolor="#ffffff"] ;
250 -> 252 ;
253 [label="gini = 0.0\nsamples = 1\nvalue = [1, 0]\nclass = 0", fillcolor="#e58139"] ;
252 -> 253 ;
254 [label="gini = 0.0\nsamples = 1\nvalue = [0, 1]\nclass =  1", fillcolor="#399de5"] ;
252 -> 254 ;
255 [label="gini = 0.0\nsamples = 2\nvalue = [5, 0]\nclass = 0", fillcolor="#e58139"] ;
227 -> 255 ;
256 [label="Building Dimension <= 3650.0\ngini = 0.5\nsamples = 16\nvalue = [12, 12]\nclass = 0", fillcolor="#ffffff"] ;
226 -> 256 ;
257 [label="Insured_Period <= 1.5\ngini = 0.39\nsamples = 8\nvalue = [4, 11]\nclass =  1", fillcolor="#81c1ee"] ;
256 -> 257 ;
258 [label="Building_Type <= 1.5\ngini = 0.15\nsamples = 6\nvalue = [1, 11]\nclass =  1", fillcolor="#4ba6e7"] ;
257 -> 258 ;
259 [label="gini = 0.0\nsamples = 3\nvalue = [0, 8]\nclass =  1", fillcolor="#399de5"] ;
258 -> 259 ;
260 [label="Date_of_Occupancy <= 50.0\ngini = 0.38\nsamples = 3\nvalue = [1, 3]\nclass =  1", fillcolor="#7bbeee"] ;
258 -> 260 ;
261 [label="gini = 0.0\nsamples = 1\nvalue = [1, 0]\nclass = 0", fillcolor="#e58139"] ;
260 -> 261 ;
262 [label="gini = 0.0\nsamples = 2\nvalue = [0, 3]\nclass =  1", fillcolor="#399de5"] ;
260 -> 262 ;
263 [label="gini = 0.0\nsamples = 2\nvalue = [3, 0]\nclass = 0", fillcolor="#e58139"] ;
257 -> 263 ;
264 [label="Building_Painted <= 0.5\ngini = 0.2\nsamples = 8\nvalue = [8, 1]\nclass = 0", fillcolor="#e89152"] ;
256 -> 264 ;
265 [label="Insured_Period <= 332876704.5\ngini = 0.38\nsamples = 4\nvalue = [3, 1]\nclass = 0", fillcolor="#eeab7b"] ;
264 -> 265 ;
266 [label="Residential <= 0.5\ngini = 0.44\nsamples = 3\nvalue = [2, 1]\nclass = 0", fillcolor="#f2c09c"] ;
265 -> 266 ;
267 [label="Building Dimension <= 7029.5\ngini = 0.5\nsamples = 2\nvalue = [1, 1]\nclass = 0", fillcolor="#ffffff"] ;
266 -> 267 ;
268 [label="gini = 0.0\nsamples = 1\nvalue = [1, 0]\nclass = 0", fillcolor="#e58139"] ;
267 -> 268 ;
269 [label="gini = 0.0\nsamples = 1\nvalue = [0, 1]\nclass =  1", fillcolor="#399de5"] ;
267 -> 269 ;
270 [label="gini = 0.0\nsamples = 1\nvalue = [1, 0]\nclass = 0", fillcolor="#e58139"] ;
266 -> 270 ;
271 [label="gini = 0.0\nsamples = 1\nvalue = [1, 0]\nclass = 0", fillcolor="#e58139"] ;
265 -> 271 ;
272 [label="gini = 0.0\nsamples = 4\nvalue = [5, 0]\nclass = 0", fillcolor="#e58139"] ;
264 -> 272 ;
273 [label="Residential <= 0.5\ngini = 0.22\nsamples = 6\nvalue = [1, 7]\nclass =  1", fillcolor="#55abe9"] ;
225 -> 273 ;
274 [label="gini = 0.0\nsamples = 3\nvalue = [0, 5]\nclass =  1", fillcolor="#399de5"] ;
273 -> 274 ;
275 [label="Insured_Period <= 40573772.5\ngini = 0.44\nsamples = 3\nvalue = [1, 2]\nclass =  1", fillcolor="#9ccef2"] ;
273 -> 275 ;
276 [label="YearOfObservation <= 2012.5\ngini = 0.5\nsamples = 2\nvalue = [1, 1]\nclass = 0", fillcolor="#ffffff"] ;
275 -> 276 ;
277 [label="gini = 0.0\nsamples = 1\nvalue = [1, 0]\nclass = 0", fillcolor="#e58139"] ;
276 -> 277 ;
278 [label="gini = 0.0\nsamples = 1\nvalue = [0, 1]\nclass =  1", fillcolor="#399de5"] ;
276 -> 278 ;
279 [label="gini = 0.0\nsamples = 1\nvalue = [0, 1]\nclass =  1", fillcolor="#399de5"] ;
275 -> 279 ;
280 [label="gini = 0.0\nsamples = 3\nvalue = [0, 5]\nclass =  1", fillcolor="#399de5"] ;
224 -> 280 ;
281 [label="Building Dimension <= 5687.5\ngini = 0.44\nsamples = 29\nvalue = [15, 31]\nclass =  1", fillcolor="#99ccf2"] ;
223 -> 281 ;
282 [label="Building Dimension <= 5209.5\ngini = 0.48\nsamples = 22\nvalue = [15, 22]\nclass =  1", fillcolor="#c0e0f7"] ;
281 -> 282 ;
283 [label="Building_Type <= 2.5\ngini = 0.47\nsamples = 20\nvalue = [13, 22]\nclass =  1", fillcolor="#aed7f4"] ;
282 -> 283 ;
284 [label="YearOfObservation <= 2015.5\ngini = 0.49\nsamples = 18\nvalue = [13, 17]\nclass =  1", fillcolor="#d0e8f9"] ;
283 -> 284 ;
285 [label="Date_of_Occupancy <= 58.0\ngini = 0.5\nsamples = 15\nvalue = [11, 13]\nclass =  1", fillcolor="#e1f0fb"] ;
284 -> 285 ;
286 [label="Date_of_Occupancy <= 48.0\ngini = 0.5\nsamples = 11\nvalue = [8, 8]\nclass = 0", fillcolor="#ffffff"] ;
285 -> 286 ;
287 [label="Building_Painted <= 0.5\ngini = 0.49\nsamples = 10\nvalue = [6, 8]\nclass =  1", fillcolor="#cee6f8"] ;
286 -> 287 ;
288 [label="YearOfObservation <= 2014.5\ngini = 0.47\nsamples = 5\nvalue = [3, 5]\nclass =  1", fillcolor="#b0d8f5"] ;
287 -> 288 ;
289 [label="Building_Type <= 1.5\ngini = 0.41\nsamples = 4\nvalue = [2, 5]\nclass =  1", fillcolor="#88c4ef"] ;
288 -> 289 ;
290 [label="gini = 0.0\nsamples = 2\nvalue = [2, 0]\nclass = 0", fillcolor="#e58139"] ;
289 -> 290 ;
291 [label="gini = 0.0\nsamples = 2\nvalue = [0, 5]\nclass =  1", fillcolor="#399de5"] ;
289 -> 291 ;
292 [label="gini = 0.0\nsamples = 1\nvalue = [1, 0]\nclass = 0", fillcolor="#e58139"] ;
288 -> 292 ;
293 [label="YearOfObservation <= 2014.5\ngini = 0.5\nsamples = 5\nvalue = [3, 3]\nclass = 0", fillcolor="#ffffff"] ;
287 -> 293 ;
294 [label="Insured_Period <= 347945216.5\ngini = 0.38\nsamples = 3\nvalue = [1, 3]\nclass =  1", fillcolor="#7bbeee"] ;
293 -> 294 ;
295 [label="Building_Type <= 1.5\ngini = 0.44\nsamples = 2\nvalue = [1, 2]\nclass =  1", fillcolor="#9ccef2"] ;
294 -> 295 ;
296 [label="gini = 0.0\nsamples = 1\nvalue = [0, 2]\nclass =  1", fillcolor="#399de5"] ;
295 -> 296 ;
297 [label="gini = 0.0\nsamples = 1\nvalue = [1, 0]\nclass = 0", fillcolor="#e58139"] ;
295 -> 297 ;
298 [label="gini = 0.0\nsamples = 1\nvalue = [0, 1]\nclass =  1", fillcolor="#399de5"] ;
294 -> 298 ;
299 [label="gini = 0.0\nsamples = 2\nvalue = [2, 0]\nclass = 0", fillcolor="#e58139"] ;
293 -> 299 ;
300 [label="gini = 0.0\nsamples = 1\nvalue = [2, 0]\nclass = 0", fillcolor="#e58139"] ;
286 -> 300 ;
301 [label="Building Dimension <= 2775.0\ngini = 0.47\nsamples = 4\nvalue = [3, 5]\nclass =  1", fillcolor="#b0d8f5"] ;
285 -> 301 ;
302 [label="gini = 0.0\nsamples = 1\nvalue = [0, 3]\nclass =  1", fillcolor="#399de5"] ;
301 -> 302 ;
303 [label="Building Dimension <= 3503.0\ngini = 0.48\nsamples = 3\nvalue = [3, 2]\nclass = 0", fillcolor="#f6d5bd"] ;
301 -> 303 ;
304 [label="gini = 0.0\nsamples = 1\nvalue = [2, 0]\nclass = 0", fillcolor="#e58139"] ;
303 -> 304 ;
305 [label="Building_Painted <= 0.5\ngini = 0.44\nsamples = 2\nvalue = [1, 2]\nclass =  1", fillcolor="#9ccef2"] ;
303 -> 305 ;
306 [label="gini = 0.0\nsamples = 1\nvalue = [0, 2]\nclass =  1", fillcolor="#399de5"] ;
305 -> 306 ;
307 [label="gini = 0.0\nsamples = 1\nvalue = [1, 0]\nclass = 0", fillcolor="#e58139"] ;
305 -> 307 ;
308 [label="Insured_Period <= 544398908.0\ngini = 0.44\nsamples = 3\nvalue = [2, 4]\nclass =  1", fillcolor="#9ccef2"] ;
284 -> 308 ;
309 [label="gini = 0.0\nsamples = 2\nvalue = [0, 4]\nclass =  1", fillcolor="#399de5"] ;
308 -> 309 ;
310 [label="gini = 0.0\nsamples = 1\nvalue = [2, 0]\nclass = 0", fillcolor="#e58139"] ;
308 -> 310 ;
311 [label="gini = 0.0\nsamples = 2\nvalue = [0, 5]\nclass =  1", fillcolor="#399de5"] ;
283 -> 311 ;
312 [label="gini = 0.0\nsamples = 2\nvalue = [2, 0]\nclass = 0", fillcolor="#e58139"] ;
282 -> 312 ;
313 [label="gini = 0.0\nsamples = 7\nvalue = [0, 9]\nclass =  1", fillcolor="#399de5"] ;
281 -> 313 ;
314 [label="NumberOfWindows <= 3.5\ngini = 0.25\nsamples = 240\nvalue = [329, 58]\nclass = 0", fillcolor="#ea975c"] ;
2 -> 314 ;
315 [label="YearOfObservation <= 2014.5\ngini = 0.17\nsamples = 140\nvalue = [199, 21]\nclass = 0", fillcolor="#e88e4e"] ;
314 -> 315 ;
316 [label="YearOfObservation <= 2012.5\ngini = 0.22\nsamples = 102\nvalue = [141, 20]\nclass = 0", fillcolor="#e99355"] ;
315 -> 316 ;
317 [label="Date_of_Occupancy <= 115.0\ngini = 0.28\nsamples = 29\nvalue = [39, 8]\nclass = 0", fillcolor="#ea9b62"] ;
316 -> 317 ;
318 [label="NumberOfWindows <= 2.5\ngini = 0.17\nsamples = 27\nvalue = [39, 4]\nclass = 0", fillcolor="#e88e4d"] ;
317 -> 318 ;
319 [label="Date_of_Occupancy <= 50.5\ngini = 0.19\nsamples = 8\nvalue = [17, 2]\nclass = 0", fillcolor="#e89050"] ;
318 -> 319 ;
320 [label="gini = 0.0\nsamples = 4\nvalue = [10, 0]\nclass = 0", fillcolor="#e58139"] ;
319 -> 320 ;
321 [label="Building Dimension <= 491.5\ngini = 0.35\nsamples = 4\nvalue = [7, 2]\nclass = 0", fillcolor="#eca572"] ;
319 -> 321 ;
322 [label="gini = 0.0\nsamples = 3\nvalue = [7, 0]\nclass = 0", fillcolor="#e58139"] ;
321 -> 322 ;
323 [label="gini = 0.0\nsamples = 1\nvalue = [0, 2]\nclass =  1", fillcolor="#399de5"] ;
321 -> 323 ;
324 [label="Residential <= 0.5\ngini = 0.15\nsamples = 19\nvalue = [22, 2]\nclass = 0", fillcolor="#e78c4b"] ;
318 -> 324 ;
325 [label="Date_of_Occupancy <= 37.5\ngini = 0.17\nsamples = 17\nvalue = [20, 2]\nclass = 0", fillcolor="#e88e4d"] ;
324 -> 325 ;
326 [label="Date_of_Occupancy <= 22.5\ngini = 0.48\nsamples = 5\nvalue = [3, 2]\nclass = 0", fillcolor="#f6d5bd"] ;
325 -> 326 ;
327 [label="gini = 0.0\nsamples = 3\nvalue = [3, 0]\nclass = 0", fillcolor="#e58139"] ;
326 -> 327 ;
328 [label="gini = 0.0\nsamples = 2\nvalue = [0, 2]\nclass =  1", fillcolor="#399de5"] ;
326 -> 328 ;
329 [label="gini = 0.0\nsamples = 12\nvalue = [17, 0]\nclass = 0", fillcolor="#e58139"] ;
325 -> 329 ;
330 [label="gini = 0.0\nsamples = 2\nvalue = [2, 0]\nclass = 0", fillcolor="#e58139"] ;
324 -> 330 ;
331 [label="gini = 0.0\nsamples = 2\nvalue = [0, 4]\nclass =  1", fillcolor="#399de5"] ;
317 -> 331 ;
332 [label="Building_Type <= 2.5\ngini = 0.19\nsamples = 73\nvalue = [102, 12]\nclass = 0", fillcolor="#e89050"] ;
316 -> 332 ;
333 [label="Insured_Period <= 42465752.5\ngini = 0.2\nsamples = 68\nvalue = [93, 12]\nclass = 0", fillcolor="#e89153"] ;
332 -> 333 ;
334 [label="Residential <= 0.5\ngini = 0.24\nsamples = 56\nvalue = [75, 12]\nclass = 0", fillcolor="#e99559"] ;
333 -> 334 ;
335 [label="Date_of_Occupancy <= 17.0\ngini = 0.18\nsamples = 45\nvalue = [63, 7]\nclass = 0", fillcolor="#e88f4f"] ;
334 -> 335 ;
336 [label="Date_of_Occupancy <= 11.5\ngini = 0.44\nsamples = 12\nvalue = [10, 5]\nclass = 0", fillcolor="#f2c09c"] ;
335 -> 336 ;
337 [label="gini = 0.0\nsamples = 7\nvalue = [8, 0]\nclass = 0", fillcolor="#e58139"] ;
336 -> 337 ;
338 [label="NumberOfWindows <= 2.5\ngini = 0.41\nsamples = 5\nvalue = [2, 5]\nclass =  1", fillcolor="#88c4ef"] ;
336 -> 338 ;
339 [label="gini = 0.0\nsamples = 1\nvalue = [0, 2]\nclass =  1", fillcolor="#399de5"] ;
338 -> 339 ;
340 [label="Date_of_Occupancy <= 12.5\ngini = 0.48\nsamples = 4\nvalue = [2, 3]\nclass =  1", fillcolor="#bddef6"] ;
338 -> 340 ;
341 [label="gini = 0.0\nsamples = 1\nvalue = [0, 2]\nclass =  1", fillcolor="#399de5"] ;
340 -> 341 ;
342 [label="YearOfObservation <= 2013.5\ngini = 0.44\nsamples = 3\nvalue = [2, 1]\nclass = 0", fillcolor="#f2c09c"] ;
340 -> 342 ;
343 [label="gini = 0.0\nsamples = 2\nvalue = [2, 0]\nclass = 0", fillcolor="#e58139"] ;
342 -> 343 ;
344 [label="gini = 0.0\nsamples = 1\nvalue = [0, 1]\nclass =  1", fillcolor="#399de5"] ;
342 -> 344 ;
345 [label="Building_Type <= 1.5\ngini = 0.07\nsamples = 33\nvalue = [53, 2]\nclass = 0", fillcolor="#e68640"] ;
335 -> 345 ;
346 [label="gini = 0.0\nsamples = 10\nvalue = [18, 0]\nclass = 0", fillcolor="#e58139"] ;
345 -> 346 ;
347 [label="Date_of_Occupancy <= 57.5\ngini = 0.1\nsamples = 23\nvalue = [35, 2]\nclass = 0", fillcolor="#e68844"] ;
345 -> 347 ;
348 [label="gini = 0.0\nsamples = 14\nvalue = [24, 0]\nclass = 0", fillcolor="#e58139"] ;
347 -> 348 ;
349 [label="Date_of_Occupancy <= 59.5\ngini = 0.26\nsamples = 9\nvalue = [11, 2]\nclass = 0", fillcolor="#ea985d"] ;
347 -> 349 ;
350 [label="gini = 0.0\nsamples = 1\nvalue = [0, 2]\nclass =  1", fillcolor="#399de5"] ;
349 -> 350 ;
351 [label="gini = 0.0\nsamples = 8\nvalue = [11, 0]\nclass = 0", fillcolor="#e58139"] ;
349 -> 351 ;
352 [label="Date_of_Occupancy <= 95.0\ngini = 0.42\nsamples = 11\nvalue = [12, 5]\nclass = 0", fillcolor="#f0b58b"] ;
334 -> 352 ;
353 [label="NumberOfWindows <= 2.5\ngini = 0.32\nsamples = 10\nvalue = [12, 3]\nclass = 0", fillcolor="#eca06a"] ;
352 -> 353 ;
354 [label="gini = 0.0\nsamples = 2\nvalue = [3, 0]\nclass = 0", fillcolor="#e58139"] ;
353 -> 354 ;
355 [label="Date_of_Occupancy <= 10.5\ngini = 0.38\nsamples = 8\nvalue = [9, 3]\nclass = 0", fillcolor="#eeab7b"] ;
353 -> 355 ;
356 [label="gini = 0.0\nsamples = 1\nvalue = [0, 1]\nclass =  1", fillcolor="#399de5"] ;
355 -> 356 ;
357 [label="Building Dimension <= 6514.0\ngini = 0.3\nsamples = 7\nvalue = [9, 2]\nclass = 0", fillcolor="#eb9d65"] ;
355 -> 357 ;
358 [label="Date_of_Occupancy <= 36.0\ngini = 0.18\nsamples = 6\nvalue = [9, 1]\nclass = 0", fillcolor="#e88f4f"] ;
357 -> 358 ;
359 [label="Building Dimension <= 825.0\ngini = 0.32\nsamples = 4\nvalue = [4, 1]\nclass = 0", fillcolor="#eca06a"] ;
358 -> 359 ;
360 [label="Building_Type <= 1.5\ngini = 0.5\nsamples = 2\nvalue = [1, 1]\nclass = 0", fillcolor="#ffffff"] ;
359 -> 360 ;
361 [label="gini = 0.0\nsamples = 1\nvalue = [1, 0]\nclass = 0", fillcolor="#e58139"] ;
360 -> 361 ;
362 [label="gini = 0.0\nsamples = 1\nvalue = [0, 1]\nclass =  1", fillcolor="#399de5"] ;
360 -> 362 ;
363 [label="gini = 0.0\nsamples = 2\nvalue = [3, 0]\nclass = 0", fillcolor="#e58139"] ;
359 -> 363 ;
364 [label="gini = 0.0\nsamples = 2\nvalue = [5, 0]\nclass = 0", fillcolor="#e58139"] ;
358 -> 364 ;
365 [label="gini = 0.0\nsamples = 1\nvalue = [0, 1]\nclass =  1", fillcolor="#399de5"] ;
357 -> 365 ;
366 [label="gini = 0.0\nsamples = 1\nvalue = [0, 2]\nclass =  1", fillcolor="#399de5"] ;
352 -> 366 ;
367 [label="gini = 0.0\nsamples = 12\nvalue = [18, 0]\nclass = 0", fillcolor="#e58139"] ;
333 -> 367 ;
368 [label="gini = 0.0\nsamples = 5\nvalue = [9, 0]\nclass = 0", fillcolor="#e58139"] ;
332 -> 368 ;
369 [label="Building_Type <= 1.5\ngini = 0.03\nsamples = 38\nvalue = [58, 1]\nclass = 0", fillcolor="#e5833c"] ;
315 -> 369 ;
370 [label="YearOfObservation <= 2015.5\ngini = 0.07\nsamples = 17\nvalue = [25, 1]\nclass = 0", fillcolor="#e68641"] ;
369 -> 370 ;
371 [label="Insured_Period <= 42465752.5\ngini = 0.12\nsamples = 10\nvalue = [14, 1]\nclass = 0", fillcolor="#e78a47"] ;
370 -> 371 ;
372 [label="Date_of_Occupancy <= 50.5\ngini = 0.24\nsamples = 6\nvalue = [6, 1]\nclass = 0", fillcolor="#e9965a"] ;
371 -> 372 ;
373 [label="gini = 0.0\nsamples = 4\nvalue = [5, 0]\nclass = 0", fillcolor="#e58139"] ;
372 -> 373 ;
374 [label="Building Dimension <= 512.5\ngini = 0.5\nsamples = 2\nvalue = [1, 1]\nclass = 0", fillcolor="#ffffff"] ;
372 -> 374 ;
375 [label="gini = 0.0\nsamples = 1\nvalue = [1, 0]\nclass = 0", fillcolor="#e58139"] ;
374 -> 375 ;
376 [label="gini = 0.0\nsamples = 1\nvalue = [0, 1]\nclass =  1", fillcolor="#399de5"] ;
374 -> 376 ;
377 [label="gini = 0.0\nsamples = 4\nvalue = [8, 0]\nclass = 0", fillcolor="#e58139"] ;
371 -> 377 ;
378 [label="gini = 0.0\nsamples = 7\nvalue = [11, 0]\nclass = 0", fillcolor="#e58139"] ;
370 -> 378 ;
379 [label="gini = 0.0\nsamples = 21\nvalue = [33, 0]\nclass = 0", fillcolor="#e58139"] ;
369 -> 379 ;
380 [label="Date_of_Occupancy <= 8.5\ngini = 0.34\nsamples = 100\nvalue = [130, 37]\nclass = 0", fillcolor="#eca571"] ;
314 -> 380 ;
381 [label="Building Dimension <= 2856.0\ngini = 0.32\nsamples = 4\nvalue = [1, 4]\nclass =  1", fillcolor="#6ab6ec"] ;
380 -> 381 ;
382 [label="Date_of_Occupancy <= 7.5\ngini = 0.5\nsamples = 2\nvalue = [1, 1]\nclass = 0", fillcolor="#ffffff"] ;
381 -> 382 ;
383 [label="gini = 0.0\nsamples = 1\nvalue = [1, 0]\nclass = 0", fillcolor="#e58139"] ;
382 -> 383 ;
384 [label="gini = 0.0\nsamples = 1\nvalue = [0, 1]\nclass =  1", fillcolor="#399de5"] ;
382 -> 384 ;
385 [label="gini = 0.0\nsamples = 2\nvalue = [0, 3]\nclass =  1", fillcolor="#399de5"] ;
381 -> 385 ;
386 [label="Building Dimension <= 2710.5\ngini = 0.32\nsamples = 96\nvalue = [129, 33]\nclass = 0", fillcolor="#eca16c"] ;
380 -> 386 ;
387 [label="Building Dimension <= 735.5\ngini = 0.24\nsamples = 79\nvalue = [115, 19]\nclass = 0", fillcolor="#e9965a"] ;
386 -> 387 ;
388 [label="Date_of_Occupancy <= 110.0\ngini = 0.05\nsamples = 27\nvalue = [42, 1]\nclass = 0", fillcolor="#e6843e"] ;
387 -> 388 ;
389 [label="gini = 0.0\nsamples = 19\nvalue = [30, 0]\nclass = 0", fillcolor="#e58139"] ;
388 -> 389 ;
390 [label="Building Dimension <= 418.0\ngini = 0.14\nsamples = 8\nvalue = [12, 1]\nclass = 0", fillcolor="#e78c49"] ;
388 -> 390 ;
391 [label="gini = 0.0\nsamples = 6\nvalue = [10, 0]\nclass = 0", fillcolor="#e58139"] ;
390 -> 391 ;
392 [label="Building Dimension <= 568.0\ngini = 0.44\nsamples = 2\nvalue = [2, 1]\nclass = 0", fillcolor="#f2c09c"] ;
390 -> 392 ;
393 [label="gini = 0.0\nsamples = 1\nvalue = [0, 1]\nclass =  1", fillcolor="#399de5"] ;
392 -> 393 ;
394 [label="gini = 0.0\nsamples = 1\nvalue = [2, 0]\nclass = 0", fillcolor="#e58139"] ;
392 -> 394 ;
395 [label="Date_of_Occupancy <= 95.0\ngini = 0.32\nsamples = 52\nvalue = [73, 18]\nclass = 0", fillcolor="#eba06a"] ;
387 -> 395 ;
396 [label="Residential <= 0.5\ngini = 0.22\nsamples = 44\nvalue = [63, 9]\nclass = 0", fillcolor="#e99355"] ;
395 -> 396 ;
397 [label="Date_of_Occupancy <= 35.5\ngini = 0.18\nsamples = 32\nvalue = [45, 5]\nclass = 0", fillcolor="#e88f4f"] ;
396 -> 397 ;
398 [label="gini = 0.0\nsamples = 15\nvalue = [22, 0]\nclass = 0", fillcolor="#e58139"] ;
397 -> 398 ;
399 [label="Building Dimension <= 1675.5\ngini = 0.29\nsamples = 17\nvalue = [23, 5]\nclass = 0", fillcolor="#eb9c64"] ;
397 -> 399 ;
400 [label="YearOfObservation <= 2013.5\ngini = 0.19\nsamples = 12\nvalue = [17, 2]\nclass = 0", fillcolor="#e89050"] ;
399 -> 400 ;
401 [label="YearOfObservation <= 2012.5\ngini = 0.3\nsamples = 7\nvalue = [9, 2]\nclass = 0", fillcolor="#eb9d65"] ;
400 -> 401 ;
402 [label="gini = 0.0\nsamples = 4\nvalue = [6, 0]\nclass = 0", fillcolor="#e58139"] ;
401 -> 402 ;
403 [label="Date_of_Occupancy <= 60.0\ngini = 0.48\nsamples = 3\nvalue = [3, 2]\nclass = 0", fillcolor="#f6d5bd"] ;
401 -> 403 ;
404 [label="gini = 0.0\nsamples = 1\nvalue = [1, 0]\nclass = 0", fillcolor="#e58139"] ;
403 -> 404 ;
405 [label="Building Dimension <= 997.5\ngini = 0.5\nsamples = 2\nvalue = [2, 2]\nclass = 0", fillcolor="#ffffff"] ;
403 -> 405 ;
406 [label="gini = 0.0\nsamples = 1\nvalue = [0, 2]\nclass =  1", fillcolor="#399de5"] ;
405 -> 406 ;
407 [label="gini = 0.0\nsamples = 1\nvalue = [2, 0]\nclass = 0", fillcolor="#e58139"] ;
405 -> 407 ;
408 [label="gini = 0.0\nsamples = 5\nvalue = [8, 0]\nclass = 0", fillcolor="#e58139"] ;
400 -> 408 ;
409 [label="Building Dimension <= 2672.0\ngini = 0.44\nsamples = 5\nvalue = [6, 3]\nclass = 0", fillcolor="#f2c09c"] ;
399 -> 409 ;
410 [label="Building_Type <= 1.5\ngini = 0.5\nsamples = 4\nvalue = [3, 3]\nclass = 0", fillcolor="#ffffff"] ;
409 -> 410 ;
411 [label="Building Dimension <= 2277.5\ngini = 0.48\nsamples = 3\nvalue = [2, 3]\nclass =  1", fillcolor="#bddef6"] ;
410 -> 411 ;
412 [label="YearOfObservation <= 2015.0\ngini = 0.5\nsamples = 2\nvalue = [2, 2]\nclass = 0", fillcolor="#ffffff"] ;
411 -> 412 ;
413 [label="gini = 0.0\nsamples = 1\nvalue = [0, 2]\nclass =  1", fillcolor="#399de5"] ;
412 -> 413 ;
414 [label="gini = 0.0\nsamples = 1\nvalue = [2, 0]\nclass = 0", fillcolor="#e58139"] ;
412 -> 414 ;
415 [label="gini = 0.0\nsamples = 1\nvalue = [0, 1]\nclass =  1", fillcolor="#399de5"] ;
411 -> 415 ;
416 [label="gini = 0.0\nsamples = 1\nvalue = [1, 0]\nclass = 0", fillcolor="#e58139"] ;
410 -> 416 ;
417 [label="gini = 0.0\nsamples = 1\nvalue = [3, 0]\nclass = 0", fillcolor="#e58139"] ;
409 -> 417 ;
418 [label="Building Dimension <= 990.0\ngini = 0.3\nsamples = 12\nvalue = [18, 4]\nclass = 0", fillcolor="#eb9d65"] ;
396 -> 418 ;
419 [label="Insured_Period <= 49863388.5\ngini = 0.44\nsamples = 2\nvalue = [1, 2]\nclass =  1", fillcolor="#9ccef2"] ;
418 -> 419 ;
420 [label="gini = 0.0\nsamples = 1\nvalue = [0, 2]\nclass =  1", fillcolor="#399de5"] ;
419 -> 420 ;
421 [label="gini = 0.0\nsamples = 1\nvalue = [1, 0]\nclass = 0", fillcolor="#e58139"] ;
419 -> 421 ;
422 [label="Building Dimension <= 2129.0\ngini = 0.19\nsamples = 10\nvalue = [17, 2]\nclass = 0", fillcolor="#e89050"] ;
418 -> 422 ;
423 [label="YearOfObservation <= 2014.0\ngini = 0.1\nsamples = 9\nvalue = [17, 1]\nclass = 0", fillcolor="#e78845"] ;
422 -> 423 ;
424 [label="gini = 0.0\nsamples = 4\nvalue = [6, 0]\nclass = 0", fillcolor="#e58139"] ;
423 -> 424 ;
425 [label="Date_of_Occupancy <= 50.0\ngini = 0.15\nsamples = 5\nvalue = [11, 1]\nclass = 0", fillcolor="#e78c4b"] ;
423 -> 425 ;
426 [label="gini = 0.0\nsamples = 1\nvalue = [3, 0]\nclass = 0", fillcolor="#e58139"] ;
425 -> 426 ;
427 [label="Date_of_Occupancy <= 75.0\ngini = 0.2\nsamples = 4\nvalue = [8, 1]\nclass = 0", fillcolor="#e89152"] ;
425 -> 427 ;
428 [label="Building Dimension <= 1859.5\ngini = 0.22\nsamples = 3\nvalue = [7, 1]\nclass = 0", fillcolor="#e99355"] ;
427 -> 428 ;
429 [label="gini = 0.0\nsamples = 1\nvalue = [0, 1]\nclass =  1", fillcolor="#399de5"] ;
428 -> 429 ;
430 [label="gini = 0.0\nsamples = 2\nvalue = [7, 0]\nclass = 0", fillcolor="#e58139"] ;
428 -> 430 ;
431 [label="gini = 0.0\nsamples = 1\nvalue = [1, 0]\nclass = 0", fillcolor="#e58139"] ;
427 -> 431 ;
432 [label="gini = 0.0\nsamples = 1\nvalue = [0, 1]\nclass =  1", fillcolor="#399de5"] ;
422 -> 432 ;
433 [label="Building Dimension <= 1800.0\ngini = 0.5\nsamples = 8\nvalue = [10, 9]\nclass = 0", fillcolor="#fcf2eb"] ;
395 -> 433 ;
434 [label="Building Dimension <= 835.0\ngini = 0.38\nsamples = 6\nvalue = [3, 9]\nclass =  1", fillcolor="#7bbeee"] ;
433 -> 434 ;
435 [label="Building Dimension <= 776.5\ngini = 0.5\nsamples = 2\nvalue = [2, 2]\nclass = 0", fillcolor="#ffffff"] ;
434 -> 435 ;
436 [label="gini = 0.0\nsamples = 1\nvalue = [0, 2]\nclass =  1", fillcolor="#399de5"] ;
435 -> 436 ;
437 [label="gini = 0.0\nsamples = 1\nvalue = [2, 0]\nclass = 0", fillcolor="#e58139"] ;
435 -> 437 ;
438 [label="Residential <= 0.5\ngini = 0.22\nsamples = 4\nvalue = [1, 7]\nclass =  1", fillcolor="#55abe9"] ;
434 -> 438 ;
439 [label="gini = 0.0\nsamples = 2\nvalue = [0, 4]\nclass =  1", fillcolor="#399de5"] ;
438 -> 439 ;
440 [label="YearOfObservation <= 2014.5\ngini = 0.38\nsamples = 2\nvalue = [1, 3]\nclass =  1", fillcolor="#7bbeee"] ;
438 -> 440 ;
441 [label="gini = 0.0\nsamples = 1\nvalue = [1, 0]\nclass = 0", fillcolor="#e58139"] ;
440 -> 441 ;
442 [label="gini = 0.0\nsamples = 1\nvalue = [0, 3]\nclass =  1", fillcolor="#399de5"] ;
440 -> 442 ;
443 [label="gini = 0.0\nsamples = 2\nvalue = [7, 0]\nclass = 0", fillcolor="#e58139"] ;
433 -> 443 ;
444 [label="Date_of_Occupancy <= 49.5\ngini = 0.5\nsamples = 17\nvalue = [14, 14]\nclass = 0", fillcolor="#ffffff"] ;
386 -> 444 ;
445 [label="Date_of_Occupancy <= 22.5\ngini = 0.45\nsamples = 13\nvalue = [7, 13]\nclass =  1", fillcolor="#a4d2f3"] ;
444 -> 445 ;
446 [label="Insured_Period <= 247267760.5\ngini = 0.46\nsamples = 7\nvalue = [7, 4]\nclass = 0", fillcolor="#f4c9aa"] ;
445 -> 446 ;
447 [label="Residential <= 0.5\ngini = 0.35\nsamples = 6\nvalue = [7, 2]\nclass = 0", fillcolor="#eca572"] ;
446 -> 447 ;
448 [label="Building Dimension <= 3610.5\ngini = 0.44\nsamples = 4\nvalue = [4, 2]\nclass = 0", fillcolor="#f2c09c"] ;
447 -> 448 ;
449 [label="gini = 0.0\nsamples = 1\nvalue = [0, 2]\nclass =  1", fillcolor="#399de5"] ;
448 -> 449 ;
450 [label="gini = 0.0\nsamples = 3\nvalue = [4, 0]\nclass = 0", fillcolor="#e58139"] ;
448 -> 450 ;
451 [label="gini = 0.0\nsamples = 2\nvalue = [3, 0]\nclass = 0", fillcolor="#e58139"] ;
447 -> 451 ;
452 [label="gini = 0.0\nsamples = 1\nvalue = [0, 2]\nclass =  1", fillcolor="#399de5"] ;
446 -> 452 ;
453 [label="gini = 0.0\nsamples = 6\nvalue = [0, 9]\nclass =  1", fillcolor="#399de5"] ;
445 -> 453 ;
454 [label="Residential <= 0.5\ngini = 0.22\nsamples = 4\nvalue = [7, 1]\nclass = 0", fillcolor="#e99355"] ;
444 -> 454 ;
455 [label="gini = 0.0\nsamples = 2\nvalue = [6, 0]\nclass = 0", fillcolor="#e58139"] ;
454 -> 455 ;
456 [label="Building Dimension <= 2914.5\ngini = 0.5\nsamples = 2\nvalue = [1, 1]\nclass = 0", fillcolor="#ffffff"] ;
454 -> 456 ;
457 [label="gini = 0.0\nsamples = 1\nvalue = [1, 0]\nclass = 0", fillcolor="#e58139"] ;
456 -> 457 ;
458 [label="gini = 0.0\nsamples = 1\nvalue = [0, 1]\nclass =  1", fillcolor="#399de5"] ;
456 -> 458 ;
459 [label="Building Dimension <= 1130.0\ngini = 0.45\nsamples = 71\nvalue = [73, 38]\nclass = 0", fillcolor="#f3c3a0"] ;
1 -> 459 ;
460 [label="Residential <= 0.5\ngini = 0.3\nsamples = 37\nvalue = [50, 11]\nclass = 0", fillcolor="#eb9d65"] ;
459 -> 460 ;
461 [label="Insured_Period <= 507513660.0\ngini = 0.36\nsamples = 17\nvalue = [19, 6]\nclass = 0", fillcolor="#eda978"] ;
460 -> 461 ;
462 [label="Building_Painted <= 0.5\ngini = 0.33\nsamples = 16\nvalue = [19, 5]\nclass = 0", fillcolor="#eca26d"] ;
461 -> 462 ;
463 [label="Building Dimension <= 323.0\ngini = 0.4\nsamples = 12\nvalue = [13, 5]\nclass = 0", fillcolor="#efb185"] ;
462 -> 463 ;
464 [label="gini = 0.0\nsamples = 4\nvalue = [7, 0]\nclass = 0", fillcolor="#e58139"] ;
463 -> 464 ;
465 [label="Date_of_Occupancy <= 48.5\ngini = 0.5\nsamples = 8\nvalue = [6, 5]\nclass = 0", fillcolor="#fbeade"] ;
463 -> 465 ;
466 [label="gini = 0.0\nsamples = 2\nvalue = [2, 0]\nclass = 0", fillcolor="#e58139"] ;
465 -> 466 ;
467 [label="Garden <= 0.5\ngini = 0.49\nsamples = 6\nvalue = [4, 5]\nclass =  1", fillcolor="#d7ebfa"] ;
465 -> 467 ;
468 [label="NumberOfWindows <= 3.5\ngini = 0.44\nsamples = 3\nvalue = [2, 1]\nclass = 0", fillcolor="#f2c09c"] ;
467 -> 468 ;
469 [label="gini = 0.0\nsamples = 1\nvalue = [1, 0]\nclass = 0", fillcolor="#e58139"] ;
468 -> 469 ;
470 [label="YearOfObservation <= 2013.0\ngini = 0.5\nsamples = 2\nvalue = [1, 1]\nclass = 0", fillcolor="#ffffff"] ;
468 -> 470 ;
471 [label="gini = 0.0\nsamples = 1\nvalue = [1, 0]\nclass = 0", fillcolor="#e58139"] ;
470 -> 471 ;
472 [label="gini = 0.0\nsamples = 1\nvalue = [0, 1]\nclass =  1", fillcolor="#399de5"] ;
470 -> 472 ;
473 [label="YearOfObservation <= 2014.5\ngini = 0.44\nsamples = 3\nvalue = [2, 4]\nclass =  1", fillcolor="#9ccef2"] ;
467 -> 473 ;
474 [label="gini = 0.0\nsamples = 2\nvalue = [2, 0]\nclass = 0", fillcolor="#e58139"] ;
473 -> 474 ;
475 [label="gini = 0.0\nsamples = 1\nvalue = [0, 4]\nclass =  1", fillcolor="#399de5"] ;
473 -> 475 ;
476 [label="gini = 0.0\nsamples = 4\nvalue = [6, 0]\nclass = 0", fillcolor="#e58139"] ;
462 -> 476 ;
477 [label="gini = 0.0\nsamples = 1\nvalue = [0, 1]\nclass =  1", fillcolor="#399de5"] ;
461 -> 477 ;
478 [label="YearOfObservation <= 2012.5\ngini = 0.24\nsamples = 20\nvalue = [31, 5]\nclass = 0", fillcolor="#e99559"] ;
460 -> 478 ;
479 [label="gini = 0.0\nsamples = 6\nvalue = [12, 0]\nclass = 0", fillcolor="#e58139"] ;
478 -> 479 ;
480 [label="Building_Painted <= 0.5\ngini = 0.33\nsamples = 14\nvalue = [19, 5]\nclass = 0", fillcolor="#eca26d"] ;
478 -> 480 ;
481 [label="gini = 0.0\nsamples = 5\nvalue = [10, 0]\nclass = 0", fillcolor="#e58139"] ;
480 -> 481 ;
482 [label="Insured_Period <= 49863388.5\ngini = 0.46\nsamples = 9\nvalue = [9, 5]\nclass = 0", fillcolor="#f3c7a7"] ;
480 -> 482 ;
483 [label="Date_of_Occupancy <= 58.0\ngini = 0.41\nsamples = 5\nvalue = [2, 5]\nclass =  1", fillcolor="#88c4ef"] ;
482 -> 483 ;
484 [label="gini = 0.0\nsamples = 1\nvalue = [0, 1]\nclass =  1", fillcolor="#399de5"] ;
483 -> 484 ;
485 [label="Building Dimension <= 450.0\ngini = 0.44\nsamples = 4\nvalue = [2, 4]\nclass =  1", fillcolor="#9ccef2"] ;
483 -> 485 ;
486 [label="gini = 0.0\nsamples = 1\nvalue = [1, 0]\nclass = 0", fillcolor="#e58139"] ;
485 -> 486 ;
487 [label="Building Dimension <= 595.0\ngini = 0.32\nsamples = 3\nvalue = [1, 4]\nclass =  1", fillcolor="#6ab6ec"] ;
485 -> 487 ;
488 [label="gini = 0.0\nsamples = 1\nvalue = [0, 2]\nclass =  1", fillcolor="#399de5"] ;
487 -> 488 ;
489 [label="Building Dimension <= 800.0\ngini = 0.44\nsamples = 2\nvalue = [1, 2]\nclass =  1", fillcolor="#9ccef2"] ;
487 -> 489 ;
490 [label="gini = 0.0\nsamples = 1\nvalue = [1, 0]\nclass = 0", fillcolor="#e58139"] ;
489 -> 490 ;
491 [label="gini = 0.0\nsamples = 1\nvalue = [0, 2]\nclass =  1", fillcolor="#399de5"] ;
489 -> 491 ;
492 [label="gini = 0.0\nsamples = 4\nvalue = [7, 0]\nclass = 0", fillcolor="#e58139"] ;
482 -> 492 ;
493 [label="YearOfObservation <= 2014.5\ngini = 0.5\nsamples = 34\nvalue = [23, 27]\nclass =  1", fillcolor="#e2f0fb"] ;
459 -> 493 ;
494 [label="Garden <= 0.5\ngini = 0.47\nsamples = 29\nvalue = [17, 27]\nclass =  1", fillcolor="#b6dbf5"] ;
493 -> 494 ;
495 [label="Residential <= 0.5\ngini = 0.32\nsamples = 5\nvalue = [1, 4]\nclass =  1", fillcolor="#6ab6ec"] ;
494 -> 495 ;
496 [label="YearOfObservation <= 2013.5\ngini = 0.44\nsamples = 3\nvalue = [1, 2]\nclass =  1", fillcolor="#9ccef2"] ;
495 -> 496 ;
497 [label="gini = 0.0\nsamples = 2\nvalue = [0, 2]\nclass =  1", fillcolor="#399de5"] ;
496 -> 497 ;
498 [label="gini = 0.0\nsamples = 1\nvalue = [1, 0]\nclass = 0", fillcolor="#e58139"] ;
496 -> 498 ;
499 [label="gini = 0.0\nsamples = 2\nvalue = [0, 2]\nclass =  1", fillcolor="#399de5"] ;
495 -> 499 ;
500 [label="Residential <= 0.5\ngini = 0.48\nsamples = 24\nvalue = [16, 23]\nclass =  1", fillcolor="#c3e1f7"] ;
494 -> 500 ;
501 [label="Building_Painted <= 0.5\ngini = 0.5\nsamples = 13\nvalue = [12, 10]\nclass = 0", fillcolor="#fbeade"] ;
500 -> 501 ;
502 [label="Date_of_Occupancy <= 36.0\ngini = 0.49\nsamples = 11\nvalue = [10, 8]\nclass = 0", fillcolor="#fae6d7"] ;
501 -> 502 ;
503 [label="gini = 0.0\nsamples = 2\nvalue = [5, 0]\nclass = 0", fillcolor="#e58139"] ;
502 -> 503 ;
504 [label="Building Dimension <= 2697.0\ngini = 0.47\nsamples = 9\nvalue = [5, 8]\nclass =  1", fillcolor="#b5daf5"] ;
502 -> 504 ;
505 [label="Insured_Period <= 369863008.5\ngini = 0.49\nsamples = 6\nvalue = [5, 4]\nclass = 0", fillcolor="#fae6d7"] ;
504 -> 505 ;
506 [label="YearOfObservation <= 2012.5\ngini = 0.49\nsamples = 4\nvalue = [3, 4]\nclass =  1", fillcolor="#cee6f8"] ;
505 -> 506 ;
507 [label="Date_of_Occupancy <= 50.0\ngini = 0.48\nsamples = 2\nvalue = [2, 3]\nclass =  1", fillcolor="#bddef6"] ;
506 -> 507 ;
508 [label="gini = 0.0\nsamples = 1\nvalue = [2, 0]\nclass = 0", fillcolor="#e58139"] ;
507 -> 508 ;
509 [label="gini = 0.0\nsamples = 1\nvalue = [0, 3]\nclass =  1", fillcolor="#399de5"] ;
507 -> 509 ;
510 [label="Building Dimension <= 1351.5\ngini = 0.5\nsamples = 2\nvalue = [1, 1]\nclass = 0", fillcolor="#ffffff"] ;
506 -> 510 ;
511 [label="gini = 0.0\nsamples = 1\nvalue = [0, 1]\nclass =  1", fillcolor="#399de5"] ;
510 -> 511 ;
512 [label="gini = 0.0\nsamples = 1\nvalue = [1, 0]\nclass = 0", fillcolor="#e58139"] ;
510 -> 512 ;
513 [label="gini = 0.0\nsamples = 2\nvalue = [2, 0]\nclass = 0", fillcolor="#e58139"] ;
505 -> 513 ;
514 [label="gini = 0.0\nsamples = 3\nvalue = [0, 4]\nclass =  1", fillcolor="#399de5"] ;
504 -> 514 ;
515 [label="Building Dimension <= 1510.0\ngini = 0.5\nsamples = 2\nvalue = [2, 2]\nclass = 0", fillcolor="#ffffff"] ;
501 -> 515 ;
516 [label="gini = 0.0\nsamples = 1\nvalue = [2, 0]\nclass = 0", fillcolor="#e58139"] ;
515 -> 516 ;
517 [label="gini = 0.0\nsamples = 1\nvalue = [0, 2]\nclass =  1", fillcolor="#399de5"] ;
515 -> 517 ;
518 [label="Building_Painted <= 0.5\ngini = 0.36\nsamples = 11\nvalue = [4, 13]\nclass =  1", fillcolor="#76bbed"] ;
500 -> 518 ;
519 [label="gini = 0.0\nsamples = 2\nvalue = [0, 6]\nclass =  1", fillcolor="#399de5"] ;
518 -> 519 ;
520 [label="Building Dimension <= 1823.5\ngini = 0.46\nsamples = 9\nvalue = [4, 7]\nclass =  1", fillcolor="#aad5f4"] ;
518 -> 520 ;
521 [label="Building Dimension <= 1505.5\ngini = 0.44\nsamples = 5\nvalue = [4, 2]\nclass = 0", fillcolor="#f2c09c"] ;
520 -> 521 ;
522 [label="gini = 0.0\nsamples = 1\nvalue = [0, 2]\nclass =  1", fillcolor="#399de5"] ;
521 -> 522 ;
523 [label="gini = 0.0\nsamples = 4\nvalue = [4, 0]\nclass = 0", fillcolor="#e58139"] ;
521 -> 523 ;
524 [label="gini = 0.0\nsamples = 4\nvalue = [0, 5]\nclass =  1", fillcolor="#399de5"] ;
520 -> 524 ;
525 [label="gini = 0.0\nsamples = 5\nvalue = [6, 0]\nclass = 0", fillcolor="#e58139"] ;
493 -> 525 ;
526 [label="Building Dimension <= 3628.0\ngini = 0.45\nsamples = 185\nvalue = [186, 100]\nclass = 0", fillcolor="#f3c5a3"] ;
0 -> 526 [labeldistance=2.5, labelangle=-45, headlabel="False"] ;
527 [label="Date_of_Occupancy <= 64.0\ngini = 0.38\nsamples = 131\nvalue = [153, 53]\nclass = 0", fillcolor="#eead7e"] ;
526 -> 527 ;
528 [label="Insured_Period <= 980874304.0\ngini = 0.25\nsamples = 66\nvalue = [87, 15]\nclass = 0", fillcolor="#e9975b"] ;
527 -> 528 ;
529 [label="Date_of_Occupancy <= 43.5\ngini = 0.24\nsamples = 65\nvalue = [87, 14]\nclass = 0", fillcolor="#e99559"] ;
528 -> 529 ;
530 [label="NumberOfWindows <= 6.5\ngini = 0.11\nsamples = 31\nvalue = [46, 3]\nclass = 0", fillcolor="#e78946"] ;
529 -> 530 ;
531 [label="Insured_Period <= 49863388.5\ngini = 0.19\nsamples = 22\nvalue = [26, 3]\nclass = 0", fillcolor="#e89050"] ;
530 -> 531 ;
532 [label="Building_Type <= 1.5\ngini = 0.21\nsamples = 18\nvalue = [22, 3]\nclass = 0", fillcolor="#e99254"] ;
531 -> 532 ;
533 [label="gini = 0.0\nsamples = 6\nvalue = [7, 0]\nclass = 0", fillcolor="#e58139"] ;
532 -> 533 ;
534 [label="Date_of_Occupancy <= 10.0\ngini = 0.28\nsamples = 12\nvalue = [15, 3]\nclass = 0", fillcolor="#ea9a61"] ;
532 -> 534 ;
535 [label="gini = 0.0\nsamples = 1\nvalue = [0, 2]\nclass =  1", fillcolor="#399de5"] ;
534 -> 535 ;
536 [label="Building_Type <= 2.5\ngini = 0.12\nsamples = 11\nvalue = [15, 1]\nclass = 0", fillcolor="#e78946"] ;
534 -> 536 ;
537 [label="gini = 0.0\nsamples = 6\nvalue = [8, 0]\nclass = 0", fillcolor="#e58139"] ;
536 -> 537 ;
538 [label="Date_of_Occupancy <= 35.5\ngini = 0.22\nsamples = 5\nvalue = [7, 1]\nclass = 0", fillcolor="#e99355"] ;
536 -> 538 ;
539 [label="gini = 0.0\nsamples = 3\nvalue = [5, 0]\nclass = 0", fillcolor="#e58139"] ;
538 -> 539 ;
540 [label="YearOfObservation <= 2015.0\ngini = 0.44\nsamples = 2\nvalue = [2, 1]\nclass = 0", fillcolor="#f2c09c"] ;
538 -> 540 ;
541 [label="gini = 0.0\nsamples = 1\nvalue = [2, 0]\nclass = 0", fillcolor="#e58139"] ;
540 -> 541 ;
542 [label="gini = 0.0\nsamples = 1\nvalue = [0, 1]\nclass =  1", fillcolor="#399de5"] ;
540 -> 542 ;
543 [label="gini = 0.0\nsamples = 4\nvalue = [4, 0]\nclass = 0", fillcolor="#e58139"] ;
531 -> 543 ;
544 [label="gini = 0.0\nsamples = 9\nvalue = [20, 0]\nclass = 0", fillcolor="#e58139"] ;
530 -> 544 ;
545 [label="Building Dimension <= 782.5\ngini = 0.33\nsamples = 34\nvalue = [41, 11]\nclass = 0", fillcolor="#eca36e"] ;
529 -> 545 ;
546 [label="gini = 0.0\nsamples = 1\nvalue = [0, 2]\nclass =  1", fillcolor="#399de5"] ;
545 -> 546 ;
547 [label="Building_Type <= 2.5\ngini = 0.3\nsamples = 33\nvalue = [41, 9]\nclass = 0", fillcolor="#eb9d64"] ;
545 -> 547 ;
548 [label="NumberOfWindows <= 7.5\ngini = 0.34\nsamples = 24\nvalue = [29, 8]\nclass = 0", fillcolor="#eca470"] ;
547 -> 548 ;
549 [label="Building Dimension <= 2107.5\ngini = 0.37\nsamples = 22\nvalue = [25, 8]\nclass = 0", fillcolor="#eda978"] ;
548 -> 549 ;
550 [label="YearOfObservation <= 2013.5\ngini = 0.49\nsamples = 13\nvalue = [10, 8]\nclass = 0", fillcolor="#fae6d7"] ;
549 -> 550 ;
551 [label="Building Dimension <= 1335.0\ngini = 0.42\nsamples = 7\nvalue = [3, 7]\nclass =  1", fillcolor="#8ec7f0"] ;
550 -> 551 ;
552 [label="Insured_Period <= 37431696.5\ngini = 0.38\nsamples = 4\nvalue = [3, 1]\nclass = 0", fillcolor="#eeab7b"] ;
551 -> 552 ;
553 [label="gini = 0.0\nsamples = 3\nvalue = [3, 0]\nclass = 0", fillcolor="#e58139"] ;
552 -> 553 ;
554 [label="gini = 0.0\nsamples = 1\nvalue = [0, 1]\nclass =  1", fillcolor="#399de5"] ;
552 -> 554 ;
555 [label="gini = 0.0\nsamples = 3\nvalue = [0, 6]\nclass =  1", fillcolor="#399de5"] ;
551 -> 555 ;
556 [label="Date_of_Occupancy <= 52.5\ngini = 0.22\nsamples = 6\nvalue = [7, 1]\nclass = 0", fillcolor="#e99355"] ;
550 -> 556 ;
557 [label="gini = 0.0\nsamples = 1\nvalue = [0, 1]\nclass =  1", fillcolor="#399de5"] ;
556 -> 557 ;
558 [label="gini = 0.0\nsamples = 5\nvalue = [7, 0]\nclass = 0", fillcolor="#e58139"] ;
556 -> 558 ;
559 [label="gini = 0.0\nsamples = 9\nvalue = [15, 0]\nclass = 0", fillcolor="#e58139"] ;
549 -> 559 ;
560 [label="gini = 0.0\nsamples = 2\nvalue = [4, 0]\nclass = 0", fillcolor="#e58139"] ;
548 -> 560 ;
561 [label="Residential <= 0.5\ngini = 0.14\nsamples = 9\nvalue = [12, 1]\nclass = 0", fillcolor="#e78c49"] ;
547 -> 561 ;
562 [label="gini = 0.0\nsamples = 3\nvalue = [7, 0]\nclass = 0", fillcolor="#e58139"] ;
561 -> 562 ;
563 [label="Building Dimension <= 2840.0\ngini = 0.28\nsamples = 6\nvalue = [5, 1]\nclass = 0", fillcolor="#ea9a61"] ;
561 -> 563 ;
564 [label="gini = 0.0\nsamples = 5\nvalue = [5, 0]\nclass = 0", fillcolor="#e58139"] ;
563 -> 564 ;
565 [label="gini = 0.0\nsamples = 1\nvalue = [0, 1]\nclass =  1", fillcolor="#399de5"] ;
563 -> 565 ;
566 [label="gini = 0.0\nsamples = 1\nvalue = [0, 1]\nclass =  1", fillcolor="#399de5"] ;
528 -> 566 ;
567 [label="Building Dimension <= 2735.0\ngini = 0.46\nsamples = 65\nvalue = [66, 38]\nclass = 0", fillcolor="#f4caab"] ;
527 -> 567 ;
568 [label="Building_Painted <= 0.5\ngini = 0.44\nsamples = 58\nvalue = [63, 30]\nclass = 0", fillcolor="#f1bd97"] ;
567 -> 568 ;
569 [label="Date_of_Occupancy <= 68.0\ngini = 0.42\nsamples = 57\nvalue = [63, 27]\nclass = 0", fillcolor="#f0b78e"] ;
568 -> 569 ;
570 [label="gini = 0.0\nsamples = 2\nvalue = [0, 5]\nclass =  1", fillcolor="#399de5"] ;
569 -> 570 ;
571 [label="Building Dimension <= 540.0\ngini = 0.38\nsamples = 55\nvalue = [63, 22]\nclass = 0", fillcolor="#eead7e"] ;
569 -> 571 ;
572 [label="Date_of_Occupancy <= 70.5\ngini = 0.2\nsamples = 11\nvalue = [16, 2]\nclass = 0", fillcolor="#e89152"] ;
571 -> 572 ;
573 [label="gini = 0.0\nsamples = 1\nvalue = [0, 1]\nclass =  1", fillcolor="#399de5"] ;
572 -> 573 ;
574 [label="YearOfObservation <= 2012.5\ngini = 0.11\nsamples = 10\nvalue = [16, 1]\nclass = 0", fillcolor="#e78945"] ;
572 -> 574 ;
575 [label="Building_Type <= 3.0\ngini = 0.44\nsamples = 2\nvalue = [2, 1]\nclass = 0", fillcolor="#f2c09c"] ;
574 -> 575 ;
576 [label="gini = 0.0\nsamples = 1\nvalue = [0, 1]\nclass =  1", fillcolor="#399de5"] ;
575 -> 576 ;
577 [label="gini = 0.0\nsamples = 1\nvalue = [2, 0]\nclass = 0", fillcolor="#e58139"] ;
575 -> 577 ;
578 [label="gini = 0.0\nsamples = 8\nvalue = [14, 0]\nclass = 0", fillcolor="#e58139"] ;
574 -> 578 ;
579 [label="NumberOfWindows <= 7.5\ngini = 0.42\nsamples = 44\nvalue = [47, 20]\nclass = 0", fillcolor="#f0b78d"] ;
571 -> 579 ;
580 [label="YearOfObservation <= 2015.5\ngini = 0.34\nsamples = 39\nvalue = [46, 13]\nclass = 0", fillcolor="#eca571"] ;
579 -> 580 ;
581 [label="Building Dimension <= 575.0\ngini = 0.28\nsamples = 35\nvalue = [45, 9]\nclass = 0", fillcolor="#ea9a61"] ;
580 -> 581 ;
582 [label="gini = 0.0\nsamples = 1\nvalue = [0, 2]\nclass =  1", fillcolor="#399de5"] ;
581 -> 582 ;
583 [label="Date_of_Occupancy <= 150.0\ngini = 0.23\nsamples = 34\nvalue = [45, 7]\nclass = 0", fillcolor="#e99558"] ;
581 -> 583 ;
584 [label="YearOfObservation <= 2012.5\ngini = 0.21\nsamples = 33\nvalue = [45, 6]\nclass = 0", fillcolor="#e89253"] ;
583 -> 584 ;
585 [label="gini = 0.0\nsamples = 8\nvalue = [15, 0]\nclass = 0", fillcolor="#e58139"] ;
584 -> 585 ;
586 [label="YearOfObservation <= 2014.5\ngini = 0.28\nsamples = 25\nvalue = [30, 6]\nclass = 0", fillcolor="#ea9a61"] ;
584 -> 586 ;
587 [label="NumberOfWindows <= 5.5\ngini = 0.31\nsamples = 21\nvalue = [25, 6]\nclass = 0", fillcolor="#eb9f69"] ;
586 -> 587 ;
588 [label="Building_Type <= 2.5\ngini = 0.14\nsamples = 9\nvalue = [12, 1]\nclass = 0", fillcolor="#e78c49"] ;
587 -> 588 ;
589 [label="Building Dimension <= 685.0\ngini = 0.28\nsamples = 4\nvalue = [5, 1]\nclass = 0", fillcolor="#ea9a61"] ;
588 -> 589 ;
590 [label="gini = 0.0\nsamples = 2\nvalue = [3, 0]\nclass = 0", fillcolor="#e58139"] ;
589 -> 590 ;
591 [label="Date_of_Occupancy <= 82.5\ngini = 0.44\nsamples = 2\nvalue = [2, 1]\nclass = 0", fillcolor="#f2c09c"] ;
589 -> 591 ;
592 [label="gini = 0.0\nsamples = 1\nvalue = [0, 1]\nclass =  1", fillcolor="#399de5"] ;
591 -> 592 ;
593 [label="gini = 0.0\nsamples = 1\nvalue = [2, 0]\nclass = 0", fillcolor="#e58139"] ;
591 -> 593 ;
594 [label="gini = 0.0\nsamples = 5\nvalue = [7, 0]\nclass = 0", fillcolor="#e58139"] ;
588 -> 594 ;
595 [label="NumberOfWindows <= 6.5\ngini = 0.4\nsamples = 12\nvalue = [13, 5]\nclass = 0", fillcolor="#efb185"] ;
587 -> 595 ;
596 [label="Building_Type <= 3.5\ngini = 0.47\nsamples = 7\nvalue = [5, 3]\nclass = 0", fillcolor="#f5cdb0"] ;
595 -> 596 ;
597 [label="Building Dimension <= 1391.0\ngini = 0.28\nsamples = 6\nvalue = [5, 1]\nclass = 0", fillcolor="#ea9a61"] ;
596 -> 597 ;
598 [label="gini = 0.0\nsamples = 5\nvalue = [5, 0]\nclass = 0", fillcolor="#e58139"] ;
597 -> 598 ;
599 [label="gini = 0.0\nsamples = 1\nvalue = [0, 1]\nclass =  1", fillcolor="#399de5"] ;
597 -> 599 ;
600 [label="gini = 0.0\nsamples = 1\nvalue = [0, 2]\nclass =  1", fillcolor="#399de5"] ;
596 -> 600 ;
601 [label="Building_Type <= 2.5\ngini = 0.32\nsamples = 5\nvalue = [8, 2]\nclass = 0", fillcolor="#eca06a"] ;
595 -> 601 ;
602 [label="gini = 0.0\nsamples = 1\nvalue = [2, 0]\nclass = 0", fillcolor="#e58139"] ;
601 -> 602 ;
603 [label="Building Dimension <= 2533.0\ngini = 0.38\nsamples = 4\nvalue = [6, 2]\nclass = 0", fillcolor="#eeab7b"] ;
601 -> 603 ;
604 [label="gini = 0.0\nsamples = 2\nvalue = [0, 2]\nclass =  1", fillcolor="#399de5"] ;
603 -> 604 ;
605 [label="gini = 0.0\nsamples = 2\nvalue = [6, 0]\nclass = 0", fillcolor="#e58139"] ;
603 -> 605 ;
606 [label="gini = 0.0\nsamples = 4\nvalue = [5, 0]\nclass = 0", fillcolor="#e58139"] ;
586 -> 606 ;
607 [label="gini = 0.0\nsamples = 1\nvalue = [0, 1]\nclass =  1", fillcolor="#399de5"] ;
583 -> 607 ;
608 [label="NumberOfWindows <= 5.5\ngini = 0.32\nsamples = 4\nvalue = [1, 4]\nclass =  1", fillcolor="#6ab6ec"] ;
580 -> 608 ;
609 [label="Building Dimension <= 1349.0\ngini = 0.44\nsamples = 2\nvalue = [1, 2]\nclass =  1", fillcolor="#9ccef2"] ;
608 -> 609 ;
610 [label="gini = 0.0\nsamples = 1\nvalue = [0, 2]\nclass =  1", fillcolor="#399de5"] ;
609 -> 610 ;
611 [label="gini = 0.0\nsamples = 1\nvalue = [1, 0]\nclass = 0", fillcolor="#e58139"] ;
609 -> 611 ;
612 [label="gini = 0.0\nsamples = 2\nvalue = [0, 2]\nclass =  1", fillcolor="#399de5"] ;
608 -> 612 ;
613 [label="YearOfObservation <= 2013.5\ngini = 0.22\nsamples = 5\nvalue = [1, 7]\nclass =  1", fillcolor="#55abe9"] ;
579 -> 613 ;
614 [label="YearOfObservation <= 2012.5\ngini = 0.38\nsamples = 2\nvalue = [1, 3]\nclass =  1", fillcolor="#7bbeee"] ;
613 -> 614 ;
615 [label="gini = 0.0\nsamples = 1\nvalue = [0, 3]\nclass =  1", fillcolor="#399de5"] ;
614 -> 615 ;
616 [label="gini = 0.0\nsamples = 1\nvalue = [1, 0]\nclass = 0", fillcolor="#e58139"] ;
614 -> 616 ;
617 [label="gini = 0.0\nsamples = 3\nvalue = [0, 4]\nclass =  1", fillcolor="#399de5"] ;
613 -> 617 ;
618 [label="gini = 0.0\nsamples = 1\nvalue = [0, 3]\nclass =  1", fillcolor="#399de5"] ;
568 -> 618 ;
619 [label="Building_Type <= 2.5\ngini = 0.4\nsamples = 7\nvalue = [3, 8]\nclass =  1", fillcolor="#83c2ef"] ;
567 -> 619 ;
620 [label="gini = 0.0\nsamples = 1\nvalue = [0, 1]\nclass =  1", fillcolor="#399de5"] ;
619 -> 620 ;
621 [label="Building Dimension <= 3125.0\ngini = 0.42\nsamples = 6\nvalue = [3, 7]\nclass =  1", fillcolor="#8ec7f0"] ;
619 -> 621 ;
622 [label="Building Dimension <= 2922.0\ngini = 0.22\nsamples = 5\nvalue = [1, 7]\nclass =  1", fillcolor="#55abe9"] ;
621 -> 622 ;
623 [label="gini = 0.0\nsamples = 3\nvalue = [0, 5]\nclass =  1", fillcolor="#399de5"] ;
622 -> 623 ;
624 [label="YearOfObservation <= 2013.0\ngini = 0.44\nsamples = 2\nvalue = [1, 2]\nclass =  1", fillcolor="#9ccef2"] ;
622 -> 624 ;
625 [label="gini = 0.0\nsamples = 1\nvalue = [0, 2]\nclass =  1", fillcolor="#399de5"] ;
624 -> 625 ;
626 [label="gini = 0.0\nsamples = 1\nvalue = [1, 0]\nclass = 0", fillcolor="#e58139"] ;
624 -> 626 ;
627 [label="gini = 0.0\nsamples = 1\nvalue = [2, 0]\nclass = 0", fillcolor="#e58139"] ;
621 -> 627 ;
628 [label="Insured_Period <= 25136612.5\ngini = 0.48\nsamples = 54\nvalue = [33, 47]\nclass =  1", fillcolor="#c4e2f7"] ;
526 -> 628 ;
629 [label="Building Dimension <= 3990.0\ngini = 0.45\nsamples = 38\nvalue = [20, 39]\nclass =  1", fillcolor="#9fcff2"] ;
628 -> 629 ;
630 [label="gini = 0.0\nsamples = 6\nvalue = [0, 13]\nclass =  1", fillcolor="#399de5"] ;
629 -> 630 ;
631 [label="Date_of_Occupancy <= 54.0\ngini = 0.49\nsamples = 32\nvalue = [20, 26]\nclass =  1", fillcolor="#d1e8f9"] ;
629 -> 631 ;
632 [label="Insured_Period <= 0.5\ngini = 0.49\nsamples = 22\nvalue = [16, 13]\nclass = 0", fillcolor="#fae7da"] ;
631 -> 632 ;
633 [label="Building Dimension <= 6418.5\ngini = 0.28\nsamples = 3\nvalue = [5, 1]\nclass = 0", fillcolor="#ea9a61"] ;
632 -> 633 ;
634 [label="gini = 0.0\nsamples = 2\nvalue = [5, 0]\nclass = 0", fillcolor="#e58139"] ;
633 -> 634 ;
635 [label="gini = 0.0\nsamples = 1\nvalue = [0, 1]\nclass =  1", fillcolor="#399de5"] ;
633 -> 635 ;
636 [label="Building Dimension <= 15263.0\ngini = 0.5\nsamples = 19\nvalue = [11, 12]\nclass =  1", fillcolor="#eff7fd"] ;
632 -> 636 ;
637 [label="Residential <= 0.5\ngini = 0.49\nsamples = 16\nvalue = [11, 8]\nclass = 0", fillcolor="#f8ddc9"] ;
636 -> 637 ;
638 [label="Date_of_Occupancy <= 50.5\ngini = 0.5\nsamples = 12\nvalue = [6, 7]\nclass =  1", fillcolor="#e3f1fb"] ;
637 -> 638 ;
639 [label="YearOfObservation <= 2013.5\ngini = 0.42\nsamples = 10\nvalue = [3, 7]\nclass =  1", fillcolor="#8ec7f0"] ;
638 -> 639 ;
640 [label="gini = 0.0\nsamples = 4\nvalue = [0, 4]\nclass =  1", fillcolor="#399de5"] ;
639 -> 640 ;
641 [label="YearOfObservation <= 2014.5\ngini = 0.5\nsamples = 6\nvalue = [3, 3]\nclass = 0", fillcolor="#ffffff"] ;
639 -> 641 ;
642 [label="NumberOfWindows <= 7.0\ngini = 0.44\nsamples = 3\nvalue = [1, 2]\nclass =  1", fillcolor="#9ccef2"] ;
641 -> 642 ;
643 [label="Building Dimension <= 8046.0\ngini = 0.5\nsamples = 2\nvalue = [1, 1]\nclass = 0", fillcolor="#ffffff"] ;
642 -> 643 ;
644 [label="gini = 0.0\nsamples = 1\nvalue = [0, 1]\nclass =  1", fillcolor="#399de5"] ;
643 -> 644 ;
645 [label="gini = 0.0\nsamples = 1\nvalue = [1, 0]\nclass = 0", fillcolor="#e58139"] ;
643 -> 645 ;
646 [label="gini = 0.0\nsamples = 1\nvalue = [0, 1]\nclass =  1", fillcolor="#399de5"] ;
642 -> 646 ;
647 [label="Date_of_Occupancy <= 25.0\ngini = 0.44\nsamples = 3\nvalue = [2, 1]\nclass = 0", fillcolor="#f2c09c"] ;
641 -> 647 ;
648 [label="gini = 0.0\nsamples = 1\nvalue = [0, 1]\nclass =  1", fillcolor="#399de5"] ;
647 -> 648 ;
649 [label="gini = 0.0\nsamples = 2\nvalue = [2, 0]\nclass = 0", fillcolor="#e58139"] ;
647 -> 649 ;
650 [label="gini = 0.0\nsamples = 2\nvalue = [3, 0]\nclass = 0", fillcolor="#e58139"] ;
638 -> 650 ;
651 [label="Date_of_Occupancy <= 30.5\ngini = 0.28\nsamples = 4\nvalue = [5, 1]\nclass = 0", fillcolor="#ea9a61"] ;
637 -> 651 ;
652 [label="gini = 0.0\nsamples = 1\nvalue = [0, 1]\nclass =  1", fillcolor="#399de5"] ;
651 -> 652 ;
653 [label="gini = 0.0\nsamples = 3\nvalue = [5, 0]\nclass = 0", fillcolor="#e58139"] ;
651 -> 653 ;
654 [label="gini = 0.0\nsamples = 3\nvalue = [0, 4]\nclass =  1", fillcolor="#399de5"] ;
636 -> 654 ;
655 [label="Building Dimension <= 4255.0\ngini = 0.36\nsamples = 10\nvalue = [4, 13]\nclass =  1", fillcolor="#76bbed"] ;
631 -> 655 ;
656 [label="gini = 0.0\nsamples = 2\nvalue = [3, 0]\nclass = 0", fillcolor="#e58139"] ;
655 -> 656 ;
657 [label="Building Dimension <= 13603.0\ngini = 0.13\nsamples = 8\nvalue = [1, 13]\nclass =  1", fillcolor="#48a5e7"] ;
655 -> 657 ;
658 [label="gini = 0.0\nsamples = 7\nvalue = [0, 13]\nclass =  1", fillcolor="#399de5"] ;
657 -> 658 ;
659 [label="gini = 0.0\nsamples = 1\nvalue = [1, 0]\nclass = 0", fillcolor="#e58139"] ;
657 -> 659 ;
660 [label="Insured_Period <= 75000000.0\ngini = 0.47\nsamples = 16\nvalue = [13, 8]\nclass = 0", fillcolor="#f5cfb3"] ;
628 -> 660 ;
661 [label="gini = 0.0\nsamples = 1\nvalue = [3, 0]\nclass = 0", fillcolor="#e58139"] ;
660 -> 661 ;
662 [label="Insured_Period <= 470622800.0\ngini = 0.49\nsamples = 15\nvalue = [10, 8]\nclass = 0", fillcolor="#fae6d7"] ;
660 -> 662 ;
663 [label="Building Dimension <= 4060.0\ngini = 0.5\nsamples = 11\nvalue = [6, 7]\nclass =  1", fillcolor="#e3f1fb"] ;
662 -> 663 ;
664 [label="gini = 0.0\nsamples = 1\nvalue = [0, 2]\nclass =  1", fillcolor="#399de5"] ;
663 -> 664 ;
665 [label="Date_of_Occupancy <= 43.0\ngini = 0.5\nsamples = 10\nvalue = [6, 5]\nclass = 0", fillcolor="#fbeade"] ;
663 -> 665 ;
666 [label="gini = 0.0\nsamples = 2\nvalue = [0, 2]\nclass =  1", fillcolor="#399de5"] ;
665 -> 666 ;
667 [label="Building_Type <= 2.5\ngini = 0.44\nsamples = 8\nvalue = [6, 3]\nclass = 0", fillcolor="#f2c09c"] ;
665 -> 667 ;
668 [label="Residential <= 0.5\ngini = 0.5\nsamples = 6\nvalue = [3, 3]\nclass = 0", fillcolor="#ffffff"] ;
667 -> 668 ;
669 [label="Building_Type <= 1.5\ngini = 0.48\nsamples = 5\nvalue = [3, 2]\nclass = 0", fillcolor="#f6d5bd"] ;
668 -> 669 ;
670 [label="gini = 0.0\nsamples = 2\nvalue = [2, 0]\nclass = 0", fillcolor="#e58139"] ;
669 -> 670 ;
671 [label="Insured_Period <= 272540988.0\ngini = 0.44\nsamples = 3\nvalue = [1, 2]\nclass =  1", fillcolor="#9ccef2"] ;
669 -> 671 ;
672 [label="Date_of_Occupancy <= 57.5\ngini = 0.5\nsamples = 2\nvalue = [1, 1]\nclass = 0", fillcolor="#ffffff"] ;
671 -> 672 ;
673 [label="gini = 0.0\nsamples = 1\nvalue = [1, 0]\nclass = 0", fillcolor="#e58139"] ;
672 -> 673 ;
674 [label="gini = 0.0\nsamples = 1\nvalue = [0, 1]\nclass =  1", fillcolor="#399de5"] ;
672 -> 674 ;
675 [label="gini = 0.0\nsamples = 1\nvalue = [0, 1]\nclass =  1", fillcolor="#399de5"] ;
671 -> 675 ;
676 [label="gini = 0.0\nsamples = 1\nvalue = [0, 1]\nclass =  1", fillcolor="#399de5"] ;
668 -> 676 ;
677 [label="gini = 0.0\nsamples = 2\nvalue = [3, 0]\nclass = 0", fillcolor="#e58139"] ;
667 -> 677 ;
678 [label="NumberOfWindows <= 5.5\ngini = 0.32\nsamples = 4\nvalue = [4, 1]\nclass = 0", fillcolor="#eca06a"] ;
662 -> 678 ;
679 [label="Building_Type <= 2.5\ngini = 0.38\nsamples = 3\nvalue = [3, 1]\nclass = 0", fillcolor="#eeab7b"] ;
678 -> 679 ;
680 [label="gini = 0.0\nsamples = 1\nvalue = [0, 1]\nclass =  1", fillcolor="#399de5"] ;
679 -> 680 ;
681 [label="gini = 0.0\nsamples = 2\nvalue = [3, 0]\nclass = 0", fillcolor="#e58139"] ;
679 -> 681 ;
682 [label="gini = 0.0\nsamples = 1\nvalue = [1, 0]\nclass = 0", fillcolor="#e58139"] ;
678 -> 682 ;
}